tree
version=v4
num_class=1
num_tree_per_iteration=1
label_index=0
max_feature_idx=13
objective=lambdarank
feature_names=source als_score visual_score user_avg_price user_price_std user_total_purchases user_tenure_days days_since_last_buy item_avg_price item_total_sales product_group index_group garment_group price_diff
feature_infos=[0:3] [-1:1.6992443799972534] [-1:1.0000003576278687] [0.001677966101694915:0.42203389830508475] [0:0.26847286449762459] [1:1441] [0:733] [-7:-1] [0.00083050847457627117:0.50102080123266557] [1:50287] [0:18] [0:4] [0:20] [-0.38944617102038892:0.47364714946070868]
tree_sizes=3602 3575 3611 3624 3614 3622 3600 3611 3597 3611 3624 3603 3601 3610 3593 3624 3600 3586 3583 3601 3582 3564 3585 3602 3592 3599 3607 3619 3597 3620 3588 3617 3582 3581 3579 3572 3606 3573 3609 3572 3582 3611 3607 3615 3592 3618 3551 3565 3596 3564 3596 3580 3591 3600 3626 3569 3591 3608 3589 3606 3575 3613 3581 3554 3596 3561 3580 3562 3577 3595 3579 3633 3555 3573 3534 3588 3557 3546 3493 3487 3573 3571 3586 3585 3577 3540

Tree=0
num_leaves=31
num_cat=0
split_feature=0 10 0 2 13 10 12 12 11 12 12 1 1 8 8 1 9 8 4 9 9 13 8 8 9 4 13 8 4 4
split_gain=6246.02 1927.29 1745.34 1900.4 875.132 734.663 663.232 920.973 405.905 334.93 312.209 287.323 268.87 257.757 237.81 232.194 214.434 435.766 227.748 207.772 267.754 326.879 176.218 226.883 169.555 159.245 149.103 146.21 135.881 127.746
threshold=1.5000000000000002 5.5000000000000009 2.5000000000000004 0.98309081792831432 -0.015249624667858388 8.5000000000000018 13.500000000000002 15.500000000000002 1.5000000000000002 6.5000000000000009 6.5000000000000009 0.17912180721759799 0.27373282611370092 0.041564465933002608 0.033338646486914876 0.22885998338460925 1535.5000000000002 0.033352549633032413 0.01599786326003624 508.50000000000006 1050.5000000000002 0.01749770235593583 0.03298614984124653 0.033773305084745762 572.50000000000011 0.019427052696966166 0.014615413823740282 0.040430911967720549 0.010984187820153724 0.010604353767786194
decision_type=2 2 2 2 2 2 2 2 2 2 2 2 2 2 2 2 2 2 2 2 2 2 2 2 2 2 2 2 2 2
left_child=1 24 -2 5 12 10 8 -8 9 -6 -4 13 14 16 28 19 17 -9 26 -10 21 -21 -12 -24 -1 -26 -18 -25 -3 -23
right_child=2 4 3 -5 6 -7 7 11 15 -11 22 -13 -14 -15 -16 -17 18 -19 -20 20 -22 29 23 27 25 -27 -28 -29 -30 -31
leaf_value=0.0064845231872882967 0.089285096456650323 -0.091964043904625342 0.01918409189578562 0.099348756861162221 0.0034662903812971244 0.060922895209422581 -0.083130245701833111 -0.039582159009165396 -0.10000000000000001 -0.043455709243405749 -0.038138721926148089 0.037711232670894261 0.029229714615293334 0.013910989114842051 0.014594729969220538 0.058393272855412716 0.0042298597207148601 0.031520747822887343 -0.026600058708963922 0.036580238046951895 0.0027917863793553541 -0.067872218709788906 0.051452030966736929 -0.074380736720648835 -0.057828496398618104 -0.03139846750616837 -0.033234059017392646 -0.0049209128056671592 -0.045861944324558458 0.00079048270201953995
leaf_weight=135.39796665293397 1656.585135233996 182.72696532026748 1499.456226692535 791.50845046096947 736.04646118782694 675.49708784546237 467.46804945764598 1641.9159080724348 46.320910297334194 786.90311733512499 479.28732305526501 294.98851740040118 130.16721596132265 792.90806366480683 149.40863510587951 212.72117315226933 2106.8791336621944 248.0382253145799 1278.2809959361985 1348.3700794547767 9879.8329330711713 78.87555851918296 169.54991718754172 84.50587125896709 2129.6912438240834 778.14984313333116 303.89037240142352 732.18124701327179 1275.492224314381 479.82860520959366
leaf_count=82205 120885 156178 574138 4023 249341 189954 414079 190915 56251 209087 209961 104515 46634 354978 36975 55466 519557 122351 310649 345371 2189186 74083 28628 49559 165267 50785 58129 243070 730382 193452
internal_value=0 -0.0108702 0.0454981 0.0291314 -0.00580662 0.0138648 -0.00294597 -0.0152878 0.00354319 -0.0207782 0.00314382 -0.0105308 -0.0398871 -0.0127642 -0.0454833 0.0066181 -0.0165553 -0.0302506 -0.00953906 0.00568736 0.0061027 0.0232553 -0.0132678 -0.00118118 -0.048209 -0.0507557 -0.000492667 -0.0121082 -0.0516389 -0.00890304
internal_weight=0 25484.3 6088.57 4431.99 22441.1 3640.48 20703.3 7134.37 13568.9 1522.95 2964.98 6666.9 1737.8 6371.91 1607.63 12045.9 5579 1889.95 3689.05 11833.2 11786.9 1907.07 1465.52 986.237 3043.24 2907.84 2410.77 816.687 1458.22 558.704
internal_count=8136054 6715836 1420218 1299333 6417579 1295310 5447410 2075173 3372237 458428 1105356 1661094 970169 1556579 923535 2913809 1201601 313266 888335 2858343 2802092 612906 531218 321257 298257 216052 577686 292629 886560 267535
is_linear=0
shrinkage=0.05


Tree=1
num_leaves=31
num_cat=0
split_feature=2 0 0 9 0 3 5 9 5 8 9 9 9 3 8 8 8 8 9 8 8 8 8 10 12 3 2 8 8 8
split_gain=12949.9 4409.45 5708.41 3039.04 3547.7 1480.62 1412.48 693.2 659.056 563.508 496.588 492.296 482.481 450 445.545 441.464 500.861 752.68 573.878 512.41 475.368 1142.8 371.671 331.593 326.807 309.859 270.661 251.652 241.619 665.117
threshold=0.98309081792831432 1.0000000180025095e-35 2.5000000000000004 1246.5000000000002 1.5000000000000002 0.025393051242236026 70.500000000000014 28.500000000000004 52.500000000000007 0.032588840158582343 6405.0000000000009 9969.0000000000018 134.50000000000003 0.025406967984934092 0.023016731169027822 0.0057743409813452639 0.024397247685970246 0.025296843325919253 2745.0000000000005 0.032675440504279112 0.016890939497058752 0.016255695114121494 0.024661634809236398 10.500000000000002 16.500000000000004 0.031865851128347542 0.92266815900802623 0.016255695114121494 0.033973299597941993 0.040430911967720549
decision_type=2 2 2 2 2 2 2 2 2 2 2 2 2 2 2 2 2 2 2 2 2 2 2 2 2 2 2 2 2 2
left_child=1 5 3 4 6 11 13 -4 27 -5 -7 -1 -2 -3 -13 -9 18 26 20 -19 21 -17 -10 -14 -8 -12 -18 -6 -21 -30
right_child=12 2 7 9 8 10 24 15 22 -11 25 14 23 -15 -16 16 17 19 -20 28 -22 -23 -24 -25 -26 -27 -28 -29 29 -31
leaf_value=-0.022703895110889351 0.013827864589186828 -0.039832924235861156 -0.057537721541188941 0.015729788860481774 -0.023191857197479286 -0.05746585910324821 0.011047754721987678 0.029198453277180222 -0.0094896888075152921 0.033259091962421418 -0.023857655557593872 0.020647653220494062 0.093024548965824391 -0.017318305207229549 -0.025575217277124009 -0.05022757082869609 0.03728661327466154 -0.04622451003421299 0.0068601294929450697 5.5023082063398786e-05 -0.062442885747043188 0.013309636704437314 0.023665940280368326 -0.049405441965262559 -0.032191857428704389 -0.047370955597805596 -0.013265232792876117 0.050961496413702373 -0.07943729999661403 -0.014057248790208294
leaf_weight=2959.8605379131623 211.11590440385044 2938.8404045276693 1421.8137118578015 7965.8961432639044 119.85385588300414 3226.7832807706436 5209.6496721965668 425.69799913436873 1059.4286665790714 10801.292515096022 3581.0988195239916 1806.0940965618938 3769.826700700447 9064.9769477996742 732.88640784972813 2145.4387041189475 839.00687673734501 1579.8936582853203 738.7404552528169 1983.588633795167 1629.5155966627062 1056.0637285014382 4180.970694484422 41.311910171061754 476.99710340762977 2301.6605779214296 386.87986210279632 2520.7793234731071 437.90958145237528 3482.7607522439794
leaf_count=801648 1144 494284 161314 892642 2821 933762 438216 11809 18890 1125187 530654 196282 2468 732844 105275 171934 31159 186142 35268 65961 156039 48257 47638 411 73036 423115 26372 20427 76442 324613
internal_value=0 -0.00468288 0.00127321 0.0105386 -0.00067564 -0.029336 -0.0131061 -0.0241999 0.0272269 0.0258186 -0.0417033 -0.00884777 0.0874049 -0.0228305 0.00730525 -0.0209766 -0.0224724 -0.0149842 -0.0341825 -0.0209329 -0.0404586 -0.0292689 0.016963 0.0914806 0.00742081 -0.0330574 0.0213329 0.0475958 -0.0141652 -0.0213597
internal_weight=0 75074.4 60466 44338.7 25571.5 14608.4 17690.5 16127.3 7881.03 18767.2 9109.54 5498.84 4022.25 12003.8 2538.98 14705.5 14279.8 8710.04 5569.76 7484.15 4831.02 3201.5 5240.4 3811.14 5686.65 5882.76 1225.89 2640.63 5904.26 3920.67
internal_count=8136054 8132031 5141295 3845985 1828156 2990736 1738380 1295310 89776 2017829 1887531 1103205 4023 1227128 301557 1133996 1122187 710689 411498 653158 376230 220191 66528 2879 511252 953769 57531 23248 467016 401055
is_linear=0
shrinkage=0.05


Tree=2
num_leaves=31
num_cat=0
split_feature=2 0 0 13 12 5 10 10 13 9 12 10 12 1 11 3 4 9 9 9 8 13 4 9 3 8 11 4 8 9
split_gain=10906.5 2440.39 3282.36 951.808 756.585 623.331 606.674 788.678 382.896 360.048 353.519 404.778 393.607 355.441 305.211 307.776 293.837 287.352 295.01 327.544 274.949 320.464 396.06 259.742 244.333 271.752 230.674 219.033 216.371 218.432
threshold=0.98309081792831432 1.5000000000000002 2.5000000000000004 -0.019302721923018722 16.500000000000004 39.500000000000007 14.000000000000002 17.000000000000004 0.01511801858414759 397.50000000000006 11.500000000000002 5.5000000000000009 7.5000000000000009 0.33542086184024816 3.5000000000000004 0.025777565913370999 0.013928544931175549 539.50000000000011 1260.5000000000002 8029.0000000000009 0.033338646486914876 0.01749770235593583 0.0092981183932007664 134.50000000000003 0.031762844279661022 0.0080534189950598987 2.5000000000000004 0.010736549333302434 0.015767537423344944 9969.0000000000018
decision_type=2 2 2 2 2 2 2 2 2 2 2 2 2 2 2 2 2 2 2 2 2 2 2 2 2 2 2 2 2 2
left_child=1 3 5 16 6 -3 10 -8 28 26 12 -12 17 -13 15 -11 -1 -5 -19 20 -20 -22 -23 -2 25 -21 -4 -10 -6 -30
right_child=23 2 9 4 8 -7 7 -9 27 14 11 13 -14 -15 -16 -17 -18 18 19 24 21 22 -24 -25 -26 -27 -28 -29 29 -31
leaf_value=-0.087414631297235368 0.026064751860255305 0.052195674167531916 -0.011988326182599362 -0.0468550894929535 -0.077438007168931747 0.023742240018177221 -0.071725392581799149 -0.012760484183703891 -0.08280083582362105 0.012961732327466342 0.03330372898695623 -0.0029746260015152078 -0.082243219381029242 0.0355371317154679 0.035456647955029383 -0.011546735566154679 -0.035485871194652845 0.00048636212489827749 -0.020268421497479407 -0.070733474119790404 -0.00085516896694973156 -0.072335345785507724 -0.014330171497748664 0.087981710516974967 -0.023491594195953001 0.0075215273825943521 -0.037968386520159408 -0.037665047304782887 -0.021630302995947044 0.010249203179636969
leaf_weight=326.17033609549981 178.18955630331766 2637.4297394107562 4665.0773393745767 453.82410045259167 142.9220192884095 7123.8656285692123 783.28451037255581 2054.6053636411089 336.39768068282865 1981.6492988734972 987.28496778185945 8780.5970102130086 176.43932620657142 643.00409720337484 572.14131894439925 3622.8902716352022 1652.9076501665404 9645.761681709555 7868.616763143451 113.86638482601847 5862.258805164136 340.72503171488643 2159.1206851345487 3426.2074392177165 868.57361772505101 4316.9649158001994 1045.9580503192847 1337.3492439480033 2407.3762324924464 691.70845626911614
leaf_count=179018 1144 23754 546948 139980 54582 97131 465580 121543 33441 194647 125842 1147687 74466 28341 32390 353555 470243 1173803 964498 21177 240134 32807 136183 2879 134983 538142 167770 124242 439330 69814
internal_value=0 -0.00415887 0.00994495 -0.0100364 -0.00868949 0.0314301 -0.00665729 -0.0290354 -0.0273154 -0.00769707 -0.00515301 0.00284431 -0.00777071 -0.000346839 0.000670144 -0.00288105 -0.0440442 -0.00735528 -0.00678029 -0.0100358 -0.0135598 -0.00724701 -0.0222362 0.0849207 0.000757033 0.00551048 -0.0167465 -0.0467367 -0.0172888 -0.0145149
internal_weight=0 73598.8 21649 51949.8 49970.7 9761.3 45054.9 2837.89 4915.75 11887.7 42217 10410.9 31806.2 9423.6 6176.68 5604.54 1979.08 31629.7 31175.9 21530.1 16230.7 8362.1 2499.85 3604.4 5299.4 4430.83 5711.04 1673.75 3242.01 3099.08
internal_count=8136054 8132031 1416195 6715836 6066575 120885 5345166 587123 721409 1295310 4758043 1301870 3456173 1176028 580592 548202 649261 3381707 3241727 2067924 1373622 409124 168990 4023 694302 559319 714718 157683 563726 509144
is_linear=0
shrinkage=0.05


Tree=3
num_leaves=31
num_cat=0
split_feature=2 0 0 9 0 1 5 5 11 13 8 10 13 2 8 13 4 8 13 9 9 8 12 4 13 5 1 3 5 8
split_gain=9472.3 2244.71 3010.95 1119.01 1148.36 600.106 549.821 432.753 430.514 365.476 266.572 246.463 208.644 207.867 204.688 198.905 610.53 278.684 197.969 187.411 184.056 183.77 180.692 177.754 203.341 163.549 179.366 160.085 157.607 143.119
threshold=0.98309081792831432 1.5000000000000002 2.5000000000000004 631.50000000000011 1.0000000180025095e-35 0.14240242540836337 56.500000000000007 118.50000000000001 2.5000000000000004 -0.020890575801737223 0.049915472523058731 6.5000000000000009 -0.0020454650933355435 0.96649509668350231 0.016374405645007636 0.009783868595532836 0.0071479512586231156 0.041431073407275316 -0.0068505009934180126 134.50000000000003 44.500000000000007 0.049239074684509575 15.500000000000002 0.011567211886442283 0.030367656241957409 52.500000000000007 0.062109671533107765 0.021284692609978385 189.50000000000003 0.012838364166847104
decision_type=2 2 2 2 2 2 2 2 2 2 2 2 2 2 2 2 2 2 2 2 2 2 2 2 2 2 2 2 2 2
left_child=1 3 6 10 5 9 -3 14 11 -5 -1 18 -10 20 29 17 -17 -13 -6 -2 -4 -19 -16 24 -18 26 -11 -22 -8 -7
right_child=19 2 13 4 8 7 28 -9 12 25 -12 15 -14 -15 22 16 23 21 -20 -21 27 -23 -24 -25 -26 -27 -28 -29 -30 -31
leaf_value=-0.05837799316387246 0.029596738025928666 0.046675183812924952 -0.02697084944638091 -0.065324046956801371 -0.016979801552510908 -0.0035285064292149611 0.027107190306980895 -0.028675261480146499 -0.055385459797583608 -0.027193238821146212 -0.020520189665449627 -0.0041152565541916512 -0.015854667547896363 -0.036638304444518148 -0.04168213344317355 -0.075146457264852307 -0.016850350372020147 0.020124478990175484 0.0079549874057255453 0.08408405499647241 0.011960888067537973 -0.0093903079896097245 0.0015940674743084569 -0.0041029354559792876 -0.080730449270127513 -0.038278487323784804 -0.0048854568327395785 -0.0060790725000134799 0.0094696275218449904 0.025662362689742632
leaf_weight=1365.002798330941 165.88079724134877 3489.5220431545749 916.01204680697992 670.33467688388191 886.9942893962143 667.43089258379769 4106.7952594226226 1493.2881371870171 370.61746623297222 3525.9852985033067 705.22610650211573 12807.713218595076 3359.2592581422068 562.47026094794273 358.6695056312019 347.8790402978193 1705.433140291716 2202.9852592677926 7761.4587321067229 3244.9414534987882 1427.0791875775903 693.38976358808577 736.46792980004102 7202.6249991938821 134.3927261546487 2091.9614907990908 1210.4204713526415 8893.8497703437461 1831.433192383498 1132.1829421588918
leaf_count=233486 1144 35814 199432 315932 125244 60096 56011 255023 47587 1075690 124170 1180239 262838 77003 67198 89393 223983 94290 806031 2879 140569 40480 61443 625996 42764 657700 254768 878306 29060 71485
internal_value=0 -0.00382286 0.00985671 -0.00946899 -0.00795855 -0.0214996 0.0309237 -0.00681332 -0.0036632 -0.0300935 -0.0454817 -0.00188139 -0.0197826 -0.00697584 0.0044644 -0.00439001 -0.0101467 -0.000947794 0.00539765 0.0814341 -0.00549107 0.0130587 -0.0125794 -0.00764601 -0.0215166 -0.026635 -0.0214923 -0.00358468 0.0216675 0.0148362
internal_weight=0 72656.9 21227.2 51429.7 49359.5 11886.7 9427.75 4388.04 37472.7 7498.7 2070.23 33742.9 3729.88 11799.4 2894.75 25094.4 9390.33 15704.1 8648.45 3410.82 11236.9 2896.38 1095.14 9042.45 1839.83 6828.37 4736.41 10320.9 5938.23 1799.61
internal_count=8136054 8132031 1416195 6715836 6358180 2819335 120885 515245 3538845 2304090 357656 3228420 310425 1295310 260222 2297145 982136 1315009 931275 4023 1218307 134770 128641 892743 266747 1988158 1330458 1018875 85071 131581
is_linear=0
shrinkage=0.05


Tree=4
num_leaves=31
num_cat=0
split_feature=2 0 0 13 12 12 5 4 12 1 1 8 11 12 5 8 9 9 13 4 4 13 13 8 11 3 9 9 9 9
split_gain=8350.53 2262.3 2478.69 684.08 481.513 512.356 477.742 455.35 300.059 239.677 232.024 186.883 180.686 179.336 149.564 147.598 146.712 138.731 133.234 248.757 118.741 300.808 173.289 110.079 107.637 146.617 116.607 98.6301 96.0832 133.591
threshold=0.98309081792831432 1.5000000000000002 2.5000000000000004 -0.012341981247488891 14.500000000000002 15.500000000000002 56.500000000000007 0.0097469118208077261 14.500000000000002 0.56210637092590343 0.45983688533306127 0.010481490187109838 1.0000000180025095e-35 18.500000000000004 189.50000000000003 0.0057743409813452639 134.50000000000003 508.50000000000006 0.028620011077054711 0.013091409760685352 0.0071479512586231156 0.0087245332892183485 -0.0090464144988720973 0.0031318766255781722 1.5000000000000002 0.023738541822429401 10760.500000000002 16.500000000000004 21152.000000000004 6964.5000000000009
decision_type=2 2 2 2 2 2 2 2 2 2 2 2 2 2 2 2 2 2 2 2 2 2 2 2 2 2 2 2 2 2
left_child=1 3 6 7 10 -6 -3 -1 9 11 17 -9 -4 15 -8 23 -2 -5 24 -20 21 22 -17 -14 25 -19 -26 -22 29 -7
right_child=16 2 12 4 5 28 14 8 -10 -11 -12 -13 13 -15 -16 20 -18 18 19 -21 27 -23 -24 -25 26 -27 -28 -29 -30 -31
leaf_value=-0.077864754732942271 0.031025198864975807 0.044496315760147447 -0.04085980121368786 -0.08517995111031329 -0.064723634648940903 -0.016419362461433423 0.026327874084256922 -0.040891871690289662 -0.049812173059249058 0.022178659717245114 0.030904469440583317 -0.013716345908306879 -0.078915911163108698 -0.06239440358522913 0.0090097716394558561 -0.078949014783546878 0.080531250650661912 0.0016400006806691547 -0.06196561276261521 -0.006409547033300979 -0.041385308262593956 -0.082671898397168542 0.035131572866091448 0.031028322515935222 -0.0018733117581544449 -0.022918516374944513 -0.0140061981538192 -0.0053114728920908788 -0.022952479938991549 -0.005592913473829687
leaf_weight=402.63100363942795 157.21676289755851 3414.9873858864303 345.95268775016302 53.122252047411166 500.26021196896909 6129.0247031396138 4002.7345222716103 844.73786937771365 817.925792979775 363.86115533928387 471.13158119574655 2519.5899449858116 24.092231314396486 130.61870975513011 1810.6711513265909 35.488702036440372 3111.2024202952161 985.30413300555665 283.20807225664612 698.28941774135455 193.32162402424728 68.697398900403641 536.79232440795749 413.81510505883489 25552.773417997654 1585.9896531992126 2146.6873352660332 9536.9870927797747 2129.3756706608692 5324.8270342430333
leaf_count=201730 1144 35814 106340 57645 367957 897275 56011 322908 291254 17971 17439 530267 1222 33103 29060 6295 2879 187918 118563 78038 57554 14178 28459 11018 2370793 277886 272781 1037141 184463 520948
internal_value=0 -0.00358127 0.0104331 -0.0092396 -0.00733377 -0.0150296 0.0296532 -0.0269009 -0.0223873 -0.0163706 -0.00392295 -0.0205398 -0.00528326 -0.00415821 0.0209339 -0.00345448 0.0781499 -0.00444709 -0.00430986 -0.0224401 -0.00465505 0.0161896 0.0280571 0.0249795 -0.003722 -0.0135078 -0.0028136 -0.00602819 -0.0131994 -0.0113862
internal_weight=0 71322.9 20514.2 50808.7 45860 14083.5 9228.39 4948.75 4546.11 3728.19 31776.5 3364.33 11285.8 10939.8 5813.41 10809.2 3268.42 31305.4 31252.3 981.497 10371.3 640.978 572.281 437.907 30270.8 2571.29 27699.5 9730.31 13583.2 11453.9
internal_count=8136054 8132031 1416195 6715836 5351706 1970643 120885 1364130 1162400 871146 3381063 853175 1295310 1188970 85071 1155867 4023 3363624 3305979 196601 1143627 48932 34754 12240 3109378 465804 2643574 1094695 1602686 1418223
is_linear=0
shrinkage=0.05


Tree=5
num_leaves=31
num_cat=0
split_feature=2 0 0 13 5 1 8 0 9 8 8 10 1 8 9 13 4 4 4 13 1 5 13 4 8 8 9 10 9 4
split_gain=7554.1 2056.91 2218.45 568.299 412.446 202.345 194.163 182.292 505.896 304.268 218.818 199.509 177.887 210.285 163.143 156.128 594.962 152.003 143.017 587.233 130.654 128.828 125.636 226.634 206.57 293.021 126.034 125.065 124.24 121.042
threshold=0.98309081792831432 1.5000000000000002 2.5000000000000004 -0.019302721923018722 67.500000000000014 0.45983688533306127 0.032793311935152641 1.0000000180025095e-35 5781.0000000000009 0.016351811559871421 0.024171210811712768 15.500000000000002 0.50227361917495739 0.016195884246689728 844.50000000000011 0.0072899355649415501 0.0059930544955247439 0.013928544931175549 0.0071479512586231156 -0.0049192963810129721 1.0000000180025095e-35 189.50000000000003 0.025896885314947771 0.018703037377751891 0.049239074684509575 0.042944196353848892 3270.5000000000005 14.000000000000002 134.50000000000003 0.014268601730289541
decision_type=2 2 2 2 2 2 2 2 2 2 2 2 2 2 2 2 2 2 2 2 2 2 2 2 2 2 2 2 2 2
left_child=1 3 4 5 -3 6 -1 8 20 12 11 -11 13 27 29 18 -17 -12 19 -16 -5 -6 24 -24 25 -4 -27 -10 -2 -9
right_child=28 2 22 7 21 -7 -8 14 9 10 17 -13 -14 -15 15 16 -18 -19 -20 -21 -22 -23 23 -25 -26 26 -28 -29 -30 -31
leaf_value=-0.050826993471484075 0.031582379656522018 0.040550913447433307 -0.0032146173962459158 -0.081665905154965371 0.024852938406714042 0.03100399346185774 -0.005819565781712009 -0.026973282977830266 -0.0082247428872870496 -0.06233184345562192 -0.0004243676843443429 0.0051557607223423835 0.021646038202982922 0.018915876199635986 -0.060616632100902318 -0.070702343542711668 -0.0072672565101642647 -0.024580723691891154 -0.003331176820523116 0.026103531024538731 -0.031330210340928095 0.0082819254287905212 -0.04076931354416221 0.0070707254497616575 0.021858224196067567 -0.052786894494587316 0.033310058678422523 -0.05697709664177885 0.077510600192502763 -0.0094297483118732667
leaf_weight=1249.2125468326267 154.75764392549172 3938.7473239648971 8924.4242365788959 136.96489326329902 3358.9320355869131 100.55686274671461 296.50456866493914 1493.7429170603864 2363.2798032191931 459.35039413330378 1268.7542902310961 143.79015766410157 860.38421082845889 771.73008942464367 230.66194405895658 378.47705621900968 15817.720094697041 1337.9754095111275 16834.596610894485 1270.262990689138 2194.0315845203586 1802.1579574538046 615.48458772338927 414.13501622073818 760.97750922071282 416.09700572950533 47.342270571971312 139.30222278920701 3033.414688969031 2876.6134340084682
leaf_count=586908 1144 43081 974433 122565 48744 11719 50634 295440 459568 189506 229325 22572 26646 100591 35351 103608 1459145 318888 1346593 58913 906618 29060 120157 55410 73420 69445 2445 80638 2879 310608
internal_value=0 -0.00340428 0.0100362 -0.00883099 0.0283658 -0.0377225 -0.0421935 -0.00785187 -0.0139935 -0.00755255 -0.0191028 -0.0462426 0.00141424 -0.00390203 -0.00632435 -0.00517244 -0.00874962 -0.0128233 -0.00201263 0.0127764 -0.0342878 0.0190666 -0.00488503 -0.021527 -0.00319667 -0.00522761 -0.0439917 -0.0109385 0.0752812 -0.0154259
internal_weight=0 70502.2 20278.3 50223.9 9099.84 1646.27 1545.72 48577.6 9675.56 7344.57 3209.87 603.141 4134.7 3274.31 38902.1 34531.7 16196.2 2606.73 18335.5 1500.92 2331 5161.09 11178.5 1029.62 10148.8 9387.86 463.439 2502.58 3188.17 4370.36
internal_count=8136054 8132031 1416195 6715836 120885 649261 637542 6066575 2456917 1427734 760291 212078 667443 640797 3609658 3003610 1562753 548213 1440857 94264 1029183 77804 1295310 175567 1119743 1046323 71890 540206 4023 606048
is_linear=0
shrinkage=0.05


Tree=6
num_leaves=31
num_cat=0
split_feature=2 0 0 13 5 4 1 0 9 3 3 8 13 10 11 2 12 2 8 9 3 5 12 12 1 5 1 9 12 8
split_gain=6873.34 1747.34 2083.47 470.217 362.068 257.548 179.949 258.652 287.041 132.654 120.78 119.501 135.001 134.049 155.032 176.654 160.346 136.491 121.916 121.809 117.08 112.766 111.721 132.585 104.881 103.216 119.764 96.4977 95.807 97.5524
threshold=0.98309081792831432 1.5000000000000002 2.5000000000000004 -0.018309116776274035 86.500000000000014 0.013928544931175549 0.42581452429294592 1.0000000180025095e-35 5781.0000000000009 0.022393736089710674 0.015769313113291706 0.0044016677868925482 -0.020084143821838294 5.5000000000000009 3.5000000000000004 0.92266815900802623 10.500000000000002 0.96649509668350231 0.016374405645007636 8029.0000000000009 0.033678714331688481 13.500000000000002 14.500000000000002 6.5000000000000009 1.0000000180025095e-35 42.500000000000007 0.13074292987585071 134.50000000000003 18.500000000000004 0.04886147761764012
decision_type=2 2 2 2 2 2 2 2 2 2 2 2 2 2 2 2 2 2 2 2 2 2 2 2 2 2 2 2 2 2
left_child=1 3 4 5 21 -1 7 8 24 -8 -9 -4 -13 -14 16 18 19 28 -16 -15 25 -3 23 -7 -5 26 -10 -2 29 -18
right_child=27 2 11 6 -6 22 9 10 20 -11 -12 12 13 14 15 -17 17 -19 -20 -21 -22 -23 -24 -25 -26 -27 -28 -29 -30 -31
leaf_value=-0.074223626943125134 0.033209288405622123 0.054260030365620472 0.026100592791926142 -0.077942917215294172 0.016608475147775886 -0.031634141105930123 0.033364768839928886 -0.037349151671184473 -0.0063510971726206296 -0.00018829923537413244 -0.0059185142503506401 -0.030707122962410151 0.011870105523263508 -0.016234403866133253 -0.088329548234969316 -0.0191264035618522 -0.00022747200234457985 -0.031258343633241453 0.030795231114978568 0.045615047130425836 -0.033348756008315446 0.033251811942622327 -0.054988360853124398 0.0011558781362861282 -0.029224220314611617 -0.015118449563594975 0.020696665745982622 0.074829231657098177 -0.054245836913856899 0.025877134934017033
leaf_weight=314.53053547971649 146.1625419575721 762.77346124709584 297.69546597346198 116.97798347688513 4322.1112005509785 776.14567227713997 436.25411702517886 308.11633296555374 2102.5476036455948 907.03905283886706 38227.549140479037 526.61383648298215 1085.9207232322369 4525.1099771811278 22.224279884365387 306.31574146146886 3022.1731429400388 346.45009774062783 639.78324527392397 81.031920077512041 504.52313590742415 3929.0116253952729 252.43012427823851 511.41648540197639 1985.7251835081843 2631.3171935946448 508.18061497167218 2952.849020450376 75.045102096628398 405.95876400888665
leaf_count=200755 1144 5110 7659 117109 66450 304080 15065 109320 540181 55257 3487849 75893 159692 612898 2728 21327 259357 63137 24294 2192 151223 49325 119302 104486 882626 588998 39585 2879 26731 39402
internal_value=0 -0.00322909 0.00910838 -0.00829225 0.0270492 -0.0329939 -0.00733245 -0.00785491 -0.0161278 0.0107086 -0.00616982 -0.00515948 -0.00600267 -0.00476483 -0.00668165 0.0122691 -0.00885182 -0.00132032 0.0267961 -0.0151463 -0.010344 0.0366673 -0.024573 -0.01861 -0.0319345 -0.00812989 -0.00108623 0.0728663 0.00164043 0.00286383
internal_weight=0 69931 20348.2 49582.8 9013.9 1854.52 47728.2 46384.9 7849.27 1343.29 38535.7 11334.3 11036.6 10510 9424.09 968.323 8455.77 3849.63 662.008 4606.14 5746.57 4691.79 1539.99 1287.56 2102.7 5242.05 2610.73 3099.01 3503.18 3428.13
internal_count=8136054 8132031 1416195 6715836 120885 728623 5987213 5916891 2319722 70322 3597169 1295310 1287651 1211758 1052066 48349 1003717 388627 27022 615090 1319987 54435 527868 408566 999735 1168764 579766 4023 325490 298759
is_linear=0
shrinkage=0.05


Tree=7
num_leaves=31
num_cat=0
split_feature=2 0 0 13 5 1 0 9 4 3 5 11 3 8 9 9 3 4 10 11 5 11 9 11 2 10 9 12 8 9
split_gain=6322.06 1628.2 1847.91 388.205 323.242 169.133 322.7 214.807 162.283 159.123 131.521 112.901 112.81 107.773 104.181 96.3493 95.966 104.656 98.8182 95.4161 94.9611 92.5785 107.079 130.853 91.4851 145.137 114.339 89.8202 97.791 118.949
threshold=0.98309081792831432 1.5000000000000002 2.5000000000000004 -0.022276933505083918 56.500000000000007 0.26474469900131231 1.0000000180025095e-35 5658.5000000000009 0.028098796141222512 0.019263304680552939 189.50000000000003 1.0000000180025095e-35 0.033678714331688481 0.0049918255965555932 1343.5000000000002 16.500000000000004 0.020892903706463028 0.0063600170683418547 5.5000000000000009 3.5000000000000004 119.50000000000001 3.5000000000000004 9156.5000000000018 2.5000000000000004 0.90419051051139843 12.500000000000002 1115.5000000000002 5.5000000000000009 0.041174726944448022 1169.5000000000002
decision_type=2 2 2 2 2 2 2 2 2 2 2 2 2 2 2 2 2 2 2 2 2 2 2 2 2 2 2 2 2 2
left_child=1 3 4 8 -3 6 7 14 -1 -7 -6 -4 20 -13 -5 -15 17 -8 -19 -11 -9 22 23 -17 25 26 -23 -18 -29 -30
right_child=-2 2 11 5 10 9 16 12 -10 19 -12 13 -14 15 -16 21 27 18 -20 -21 -22 24 -24 -25 -26 -27 -28 28 29 -31
leaf_value=-0.055769087031909685 0.070753736420266652 0.038150606713841101 -0.034898476430206264 -0.071185192743901934 0.023700581563850839 0.040283152301233201 -0.058299643204893253 -0.0077481915222958921 -0.016086098363184604 0.0023529649894395935 0.0072519230464530779 0.021971968241012621 -0.034425912400726268 -0.039894860393049202 -0.028399918785469359 -0.0047093547082928677 -0.0097937054992566861 0.021837342353189019 -0.015589358390047528 -0.07963716944939396 -0.032320798857285754 0.0089021785908771668 0.032793289728339413 -0.0278576546385251 -0.0066356705826021815 -0.016495424845544112 0.063216235869603329 -0.0066766151691942145 -0.0058886409485881842 0.0042458417849791296
leaf_weight=580.65921156195691 3025.355268972693 3333.6664689066238 299.38563190179411 154.33345763530815 3842.844137857086 293.7773264850257 133.45970918342937 4318.957530554093 463.11592467190349 1957.2372141303495 1777.3512144402775 391.84402316436172 524.21322453522589 191.28269968111999 1821.5303267338313 8573.2009599611192 9046.026251069241 189.85145711421501 2482.8581465192838 36.13970074208919 432.54957085900242 168.71682009339565 178.01387695479207 657.30804921453819 438.60150272696046 158.64918415347347 227.62554452003678 15147.376448646974 5524.6078401088307 6083.609927868034
leaf_count=320772 4023 35814 106340 148789 56011 11252 76920 1084180 135719 159591 29060 10753 192590 64429 876873 905024 873031 23919 454461 5116 142356 9157 4552 156915 27220 7921 2999 1270055 575013 365199
internal_value=0 -0.00308309 0.00885417 -0.00799447 0.0258155 -0.00734046 -0.00800227 -0.0176801 -0.038162 0.00592943 0.0184988 -0.00460389 -0.0124137 -0.00377826 -0.0317418 -0.00473074 -0.00618452 -0.0150885 -0.0129308 0.000866493 -0.00998514 -0.00408412 -0.005617 -0.00635775 0.010431 0.0239185 0.0400956 -0.00548661 -0.00403039 -0.000577383
internal_weight=0 69428.8 20238.5 49190.3 8953.86 48146.5 45859.4 7251.58 1043.78 2287.15 5620.2 11284.6 5275.72 10985.2 1975.86 10593.4 38607.8 2806.17 2672.71 1993.38 4751.51 10402.1 9408.52 9230.51 993.593 554.992 396.342 35801.6 26755.6 11608.2
internal_count=8136054 8132031 1416195 6715836 120885 6259345 6083386 2444788 456491 175959 85071 1295310 1419126 1188970 1025662 1178217 3638598 555300 478380 164707 1226536 1113788 1066491 1061939 47297 20077 12156 3083298 2210267 940212
is_linear=0
shrinkage=0.05


Tree=8
num_leaves=31
num_cat=0
split_feature=2 0 0 13 5 1 13 4 12 4 5 11 10 8 8 8 8 8 8 12 8 2 8 2 9 8 8 8 4 8
split_gain=5872.06 1455.52 1663.79 331.72 298.642 155.946 166.719 256.834 190.717 138.055 126.237 97.4641 136.553 120.399 234.699 216.632 150.102 148.693 297.83 139.013 123.334 123.852 118.87 113.519 112.282 109.436 131.043 132.381 179.67 108.844
threshold=0.98309081792831432 1.5000000000000002 2.5000000000000004 -0.022797941685821905 140.50000000000003 0.96817877888679515 -0.010336974162243476 0.0075525225663229303 14.500000000000002 0.029962771497177514 34.500000000000007 3.5000000000000004 8.5000000000000018 0.032834143150006136 0.033773305084745762 0.025296843325919253 0.040668190770560796 0.024661634809236398 0.016890939497058752 5.5000000000000009 0.04182426810477656 0.86473003029823314 0.048393608789524853 0.92029595375061046 1115.5000000000002 0.052259462490697357 0.064855654537149324 0.072671687523635967 0.020718971408988342 0.0079517853105704958
decision_type=2 2 2 2 2 2 2 2 2 2 2 2 2 2 2 2 2 2 2 2 2 2 2 2 2 2 2 2 2 2
left_child=1 3 4 9 10 6 7 -5 -9 -1 -3 12 13 15 19 17 -16 18 24 -15 -18 -22 -23 -21 -4 -24 -27 -28 -29 -14
right_child=-2 2 11 5 -6 -7 -8 8 -10 -11 -12 -13 29 14 16 -17 20 -19 -20 23 21 22 25 -25 -26 26 27 28 -30 -31
leaf_value=-0.054174444522042745 0.068991222544178513 0.040146834513294524 -0.014125558786580611 -0.076031128651716587 0.010257852373846386 0.026362724404242338 -0.0063523725150566035 -0.0093678601487998479 -0.037218529343236106 -0.015035676437605595 0.025232425466074918 0.010539799698495085 0.029236653255093333 0.043776598793470484 -0.046552807912681841 -0.04161372081329176 0.024635819316206207 0.014710265554839001 -0.041337635786207326 -0.020811001070006031 -0.049777909705740649 -0.037161525927885186 0.013926404272268426 0.017004769179960667 0.013285402809860479 -0.036504762921000959 0.033841459103996649 -0.050312910737760265 0.016279843600348651 -0.00037188129710678266
leaf_weight=525.45573706825962 2956.9886668205727 2154.8482237723656 918.47846033080714 173.68362435902236 2625.0279547680984 346.08225881383987 42749.979066467095 3663.1053191944375 738.6402943917783 394.43754673993681 4153.5101920956222 983.11717209860217 353.3950836166041 306.75979707192164 279.17944613005966 681.02138026378816 260.95041371986736 494.47082061917172 751.56808126333635 292.379298322252 194.8759924643382 293.5590060435934 618.33795633056434 617.77218806376914 629.75134945008904 368.23857548920205 206.42110693838913 192.8235870214412 213.3723640787066 2550.7260894874271
leaf_count=312178 4023 20116 162560 89332 42572 10122 5089127 787573 310593 116911 58197 50714 9022 15678 85399 178846 27747 32616 161504 17149 36043 62525 56388 24248 48707 56832 22083 52128 23952 171169
internal_value=0 -0.00296814 0.00833356 -0.00765257 0.0244298 -0.0070787 -0.00732325 -0.0163945 -0.0140414 -0.0373923 0.030327 -0.00449693 -0.00594281 -0.00958247 -0.00348579 -0.0163272 -0.0118926 -0.0101643 -0.0155125 0.0146677 -0.00777252 -0.0118235 -0.00791577 0.00485674 -0.00297599 -0.00254722 -0.0129323 0.0012369 -0.0153321 0.00323111
internal_weight=0 68732 20140.6 48591.4 8933.39 47671.5 47325.4 4575.43 4401.75 919.893 6308.36 11207.2 10224.1 7319.96 3844.67 3475.29 2627.76 2794.27 2299.8 1216.91 2348.58 2087.63 1892.75 910.151 1548.23 1599.19 980.856 612.617 406.196 2904.12
internal_count=8136054 8132031 1416195 6715836 120885 6286747 6276625 1187498 1098166 429089 78313 1295310 1244596 1064405 480172 584233 423097 405387 372771 57075 337698 309951 273908 41397 211267 211383 154995 98163 76080 180191
is_linear=0
shrinkage=0.05


Tree=9
num_leaves=31
num_cat=0
split_feature=2 0 0 13 5 4 9 0 10 12 9 5 9 8 1 0 12 6 11 10 9 9 1 9 3 9 3 8 10 10
split_gain=5429.21 1166.3 1631.15 306.937 280.082 172.21 131.707 351.328 170.854 216.898 128.627 136.299 120.684 120.158 119.444 131.787 118.104 116.856 107.719 105.817 95.4454 92.4879 90.2519 125.306 114.32 88.4577 97.8602 89.8946 156.556 83.7179
threshold=0.98309081792831432 1.5000000000000002 2.5000000000000004 -0.019302721923018722 140.50000000000003 0.013928544931175549 9969.0000000000018 1.0000000180025095e-35 14.000000000000002 17.500000000000004 10095.000000000002 169.50000000000003 8162.0000000000009 0.02446160133780886 0.40065832436084753 1.0000000180025095e-35 7.5000000000000009 4.5000000000000009 2.5000000000000004 15.500000000000002 10161.500000000002 786.50000000000011 0.2026115953922272 18074.500000000004 0.019263304680552939 2047.5000000000002 0.03620646422820336 0.033297701139688336 6.5000000000000009 5.5000000000000009
decision_type=2 2 2 2 2 2 2 2 2 2 2 2 2 2 2 2 2 2 2 2 2 2 2 2 2 2 2 2 2 2
left_child=1 3 4 5 16 -1 7 8 17 -10 -8 20 -11 -9 15 -7 -3 -5 29 -2 -12 -15 23 -22 -24 26 -23 28 -28 -19
right_child=19 2 -4 6 -6 14 10 13 9 12 11 -13 -14 21 -16 -17 -18 18 -20 -21 22 25 24 -25 -26 -27 27 -29 -30 -31
leaf_value=-0.070382261439169785 0.067779806660978006 0.022644191491377544 -0.0051871296314025487 -0.066907288602444034 0.0094827235872990412 -0.042134837549724413 0.02215317429355312 -0.046111975946885632 -0.062553363872216536 0.0076197116631277874 -0.079379591641493913 -0.027987887940329793 -0.072098509184173695 -0.015246438103639376 0.024047198400773715 -0.0061059320412531586 0.03640015045975812 -0.063719348923507044 0.0077557435563705189 -0.053379821044826706 -0.013035432078690358 -0.004962916652885254 0.041098996442610572 0.0019171604170804769 0.0043006103475115957 -0.0088012237769510143 0.018963680178522034 0.0060239389741754239 -0.032479037984740618 -0.016606264385625721
leaf_weight=223.49464067124063 2880.4593345439062 3405.8572221146896 11680.352346335589 110.81758096896374 2618.2776633798785 644.20413437974639 563.10723208752461 184.91977692546789 485.18098072102293 237.70354846183909 38.583637065952644 494.84628974128282 59.325105251045898 2350.6628808515379 123.30462475458626 418.82533571554814 2879.5930116622476 97.190838050097227 463.26141515997006 18.134506594389677 2163.2263642290491 15533.357678026106 247.72979687550105 3977.135900524212 1425.7909860331565 9984.2858300231746 230.20510766684311 4058.0254573039128 413.65859636291862 3161.5001395571162
leaf_count=179018 3645 48171 1295310 113646 42572 373386 55438 57009 398295 86917 17059 78669 27880 483189 14053 82804 30142 57329 119725 378 456484 1548660 7687 396119 77464 781701 8836 219798 48632 1026038
internal_value=0 -0.00284541 0.00710167 -0.00713877 0.0232227 -0.0301212 -0.00643866 -0.00774112 -0.0206568 -0.0419526 -0.000976206 -0.00253651 -0.00830229 -0.00592138 -0.0225363 -0.0279397 0.0289463 -0.0163107 -0.0148042 0.0670218 -0.000932614 -0.00569319 -0.000545256 -0.00335058 0.00974784 -0.00495008 -0.00304988 0.00327009 -0.0140864 -0.0180114
internal_weight=0 68274.4 20584.1 47690.3 8903.73 1409.83 46280.5 37370.1 4614.98 782.21 8910.42 8347.31 297.029 32755.1 1186.33 1063.03 6285.45 3832.77 3721.95 2898.59 7852.47 32570.2 7813.88 6140.36 1673.52 30219.5 20235.2 4701.89 643.864 3258.69
internal_count=8136054 8132031 1416195 6715836 120885 649261 6066575 4977655 1829830 513092 1088920 1033482 114797 3147825 470243 456190 78313 1316738 1203092 4023 954813 3090816 937754 852603 85151 2607627 1825926 277266 57468 1083367
is_linear=0
shrinkage=0.05


Tree=10
num_leaves=31
num_cat=0
split_feature=2 0 0 5 13 4 1 0 9 5 13 4 8 11 13 3 9 12 8 1 5 8 4 13 13 1 5 3 4 5
split_gain=5058.37 1193.93 1725.53 362.932 287.203 148.723 126.673 141.02 229.303 100.785 99.5925 272.564 112.111 105.272 133.526 98.6458 89.7919 88.9338 85.907 106.987 84.9461 83.4951 77.6929 124.094 89.1127 76.2635 84.8547 75.1692 73.2931 70.8802
threshold=0.98309081792831432 1.5000000000000002 2.5000000000000004 140.50000000000003 -0.019302721923018722 0.013928544931175549 0.85932412743568432 1.0000000180025095e-35 5658.5000000000009 13.500000000000002 0.022926633694943851 0.01234804587768875 0.050030096057244046 1.5000000000000002 -0.0075705060815265315 0.031480262675177929 11.500000000000002 17.500000000000004 0.033178929256187518 0.27373282611370092 14.500000000000002 0.0057743409813452639 0.0071479512586231156 0.0085475734298816747 -0.0097532842798039709 0.2026115953922272 147.50000000000003 0.019114901129943501 0.019513802600286605 30.500000000000004
decision_type=2 2 2 2 2 2 2 2 2 2 2 2 2 2 2 2 2 2 2 2 2 2 2 2 2 2 2 2 2 2
left_child=1 4 3 9 5 -1 7 8 -6 -3 13 12 20 14 -9 25 -4 -15 19 -7 -12 -18 23 24 -23 29 27 -27 -16 -10
right_child=-2 2 16 -5 6 18 -8 10 15 -11 11 -13 -14 17 28 -17 21 -19 -20 -21 -22 22 -24 -25 -26 26 -28 -29 -30 -31
leaf_value=-0.06841530486408641 0.065493303217939378 0.048384610395735904 -0.035866895677515581 0.0087288954531223335 -0.02813907050184138 -0.036429398371407039 0.017970892639370784 -0.041631990132553975 -0.002165314313763734 0.028613477444608199 -0.072760309665936995 -0.0041579146476004051 -0.070771471722438015 -0.0029913834625320242 -0.0065737596393757054 -0.02377647625365378 0.016975036500923309 -0.02324288663811153 0.0070265053043353648 0.0062797943293579767 -0.017920104123347231 -0.086771851515876186 -0.0065120816589152629 -0.069747116484003349 0.019790586686372368 0.034604967592553292 -0.021358627984790511 0.0028347313655651893 -0.02236789044960822 -0.015910708261554128
leaf_weight=207.91973475983832 2829.9899944583885 733.32901275425684 233.83915822062409 2618.2623553071171 1837.6546070977347 807.83766596758505 527.28039779677056 326.72483705356717 1682.1037005514954 5325.7991507341503 86.132985959993675 1631.6384420369286 222.42645591846667 27905.281893334803 5178.4921764505561 875.9464717344963 432.70857165963389 552.85650524124503 203.15593190107029 179.14869500754867 391.8911181166186 20.256351231131703 10239.994618309996 44.666820772108622 623.29049770114943 215.75388130906504 311.86753860220779 1358.4029385554022 855.94383149710484 2119.8435381421586
leaf_count=179018 4023 5110 87526 42572 988037 419387 17775 67874 411870 73203 52763 231477 88525 2211186 563613 277372 12603 172505 25835 25021 101990 6269 1143950 14634 30328 9661 52270 91312 119725 608620
internal_value=0 -0.00273571 0.00742214 0.0242845 -0.00707288 -0.0293989 -0.00639551 -0.00667755 -0.0125276 0.0310064 -0.0053546 -0.0153577 -0.0414465 -0.00468463 -0.0104997 -0.00815696 -0.00519746 -0.00338481 -0.0225826 -0.0286772 -0.0278015 -0.0045662 -0.00541914 0.0108429 0.0164364 -0.00575156 0.00246858 0.00718916 -0.00881405 -0.0098293
internal_weight=0 67750.4 20272.1 8677.39 47478.3 1398.06 46080.2 45553 8401.57 6059.13 37151.4 2332.09 700.451 34819.3 6361.16 6563.92 11594.8 28458.1 1190.14 986.986 478.024 11360.9 10928.2 688.214 643.547 5687.97 1886.02 1574.16 6034.44 3801.95
internal_count=8136054 8132031 1416195 120885 6715836 649261 6066575 6048800 2439142 78313 3609658 474755 243278 3134903 751212 1451105 1295310 2383691 470243 444408 154753 1207784 1195181 51231 36597 1173733 153243 100973 683338 1020490
is_linear=0
shrinkage=0.05


Tree=11
num_leaves=31
num_cat=0
split_feature=2 0 0 5 13 4 1 0 9 3 5 3 4 9 2 8 8 8 8 8 8 8 8 9 8 2 8 2 9 8
split_gain=4755.47 1104.9 1546.48 332.806 257.834 133.265 102.518 136.248 181.47 100.663 95.0947 80.5207 81.5124 77.3986 103.902 75.7117 108.12 162.107 256.319 145.997 211.473 160.778 160.822 131.105 130.541 122.806 119.607 103.193 123.706 99.5555
threshold=0.98309081792831432 1.5000000000000002 2.5000000000000004 140.50000000000003 -0.019302721923018722 0.013928544931175549 0.45983688533306127 1.0000000180025095e-35 5430.0000000000009 0.022393736089710674 39.500000000000007 0.020892903706463028 0.0063600170683418547 5658.5000000000009 0.95278853178024303 0.0049918255965555932 0.016195884246689728 0.016890939497058752 0.024222776309447813 0.025018197903104465 0.024941592995101066 0.032675440504279112 0.033481623676570781 125.50000000000001 0.030324693040857602 0.85910579562187206 0.013862653474206486 0.8880804479122163 482.50000000000006 0.040668190770560796
decision_type=2 2 2 2 2 2 2 2 2 2 2 2 2 2 2 2 2 2 2 2 2 2 2 2 2 2 2 2 2 2
left_child=1 4 3 10 5 -1 7 8 -6 -8 -3 12 -9 15 -15 -4 26 -18 25 20 27 24 23 -23 -21 -19 -17 28 -20 -24
right_child=-2 2 13 -5 6 -7 9 11 -10 -11 -12 -13 -14 14 -16 16 17 18 19 21 -22 22 29 -25 -26 -27 -28 -29 -30 -31
leaf_value=-0.066648846854585983 0.064152817682170182 0.03746167725404153 0.015766096338555149 0.0082010939853654537 -0.027726324944185796 -0.021892242989926078 0.028566832161257251 -0.054317840891454632 -0.008695765678057325 -0.0017571089131557219 0.024579842435243041 -0.0047079146653201676 -0.011848715067745815 0.027659938402732533 -0.03002639422216884 -0.0090326433476336093 0.013029430738506383 -0.010375858091485413 -0.015691555615302839 -0.012300915658950284 0.057929073023716783 -0.023730217081673541 -0.027312094547342399 0.016990808469169675 -0.047785704349862158 -0.051212832059743502 -0.041834904510368386 -0.012900266423870944 0.039060744972852932 -0.0054113879748177536
leaf_weight=193.80002906516893 2774.1380906192353 2333.1619977688533 394.40340480796294 2614.6367251608608 1594.0439084796817 1172.890907782712 400.25156287406571 118.23650421458296 5849.6185397662921 865.42323468008544 3711.9067957878869 34340.632345937644 2543.342537006014 360.84487654815894 99.604427962040063 791.72459681163309 1130.8748214334191 308.71680479339557 159.76104412824498 778.0981027673115 205.12603219226003 235.53043383947806 626.21233458007919 1229.4029855811677 388.63283841492375 456.06946273561334 428.20307357626734 528.2562035715091 291.20660669816425 3028.212857488732
leaf_count=179018 4023 23754 11301 42572 912049 470243 13345 76920 1481330 50193 54559 3054358 478380 10506 7962 128274 61580 44062 9799 104459 3972 18036 112443 41649 111624 126003 78406 45932 7149 372153
internal_value=0 -0.00264918 0.00716427 0.0231053 -0.00683914 -0.0282388 -0.00619933 -0.00659891 -0.0127711 0.0078324 0.0295517 -0.00535726 -0.0137353 -0.00490164 0.0151812 -0.00574379 -0.00654518 -0.00472152 -0.00715911 -0.00433671 0.0117668 -0.00737073 -0.00355331 0.0104437 -0.0241207 -0.0347284 -0.0205465 0.00209676 0.019664 -0.00916423
internal_weight=0 67178.8 20100.6 8659.71 47078.2 1366.69 45711.5 44445.9 7443.66 1265.67 6045.07 37002.2 2661.58 11440.9 460.449 10980.4 10586 9366.1 8235.23 7470.44 1184.35 6286.09 5119.36 1464.93 1166.73 764.786 1219.93 979.224 450.968 3654.43
internal_count=8136054 8132031 1416195 120885 6715836 649261 6066575 6003037 2393379 63538 78313 3609658 555300 1295310 18468 1276842 1265541 1058861 997281 827216 66852 760364 544281 59685 216083 170065 206680 62880 16948 484596
is_linear=0
shrinkage=0.05


Tree=12
num_leaves=31
num_cat=0
split_feature=2 0 0 5 13 9 1 0 3 4 3 10 11 2 9 13 9 9 10 8 3 2 5 1 10 3 10 5 10 5
split_gain=4462.59 1150.71 1284.18 310.851 218.705 122.041 118.688 165.657 152.021 109.558 105.297 102.579 160.702 124.337 122.724 106.309 108.834 97.4267 97.0661 91.1199 77.4199 75.44 73.4718 97.1603 73.3504 68.4937 67.9165 66.4635 64.9245 64.5958
threshold=0.98309081792831432 1.5000000000000002 2.5000000000000004 140.50000000000003 -0.023976586444207335 508.50000000000006 0.26474469900131231 1.0000000180025095e-35 0.031762844279661022 0.022866685209638703 0.019263304680552939 8.5000000000000018 3.5000000000000004 0.90419051051139843 125.50000000000001 -0.020084143821838294 289.50000000000006 1115.5000000000002 5.5000000000000009 0.04810273361565727 0.040612549052350337 0.96649509668350231 119.50000000000001 0.084109000861644759 6.5000000000000009 0.015248692844860865 15.500000000000002 75.500000000000014 3.0000000000000004 22.500000000000004
decision_type=2 2 2 2 2 2 2 2 2 2 2 2 2 2 2 2 2 2 2 2 2 2 2 2 2 2 2 2 2 2
left_child=1 4 3 19 9 -6 7 8 22 -1 -8 12 15 17 -13 -4 18 -14 -17 24 -20 -18 23 -7 28 -9 -2 -12 -3 -25
right_child=26 2 11 -5 5 6 10 25 -10 -11 27 14 13 -15 -16 16 21 -19 20 -21 -22 -23 -24 29 -26 -27 -28 -29 -30 -31
leaf_value=-0.060039353235408183 0.063409488814966664 -0.0043152288965056743 -0.036071538817773759 0.0076013519438713614 -0.069703689119306578 -0.014081684057776876 0.033328254256860861 -0.034832354073159072 -0.029821070398161786 -0.019391019720458213 0.010412335803971882 0.025066764516204307 0.0053870571235962519 -0.0053865018136738281 -0.00067525002790385519 0.0019094928857626315 -0.0012701348583663769 0.055403887607000893 -0.024605871581125899 0.037263575665857855 0.0031856983329219737 -0.031975460295138092 -0.029744416610655317 0.024417139447264331 0.018325171489941054 -0.0054224138682851036 -0.045337189223095375 -0.0079001857008523003 0.034374491237740223 -0.0032505876786892694
leaf_weight=261.76120439195074 2701.079946319107 116.12296248454368 338.21709333482431 2615.225104782352 76.028436599233828 3123.8984290616354 283.84527276933659 199.03782676067203 1255.2047001721221 452.02482667047298 941.2732741474756 579.24305412539979 166.77100053039612 378.09383606724441 2307.2625109327564 621.59363971441053 4339.2024175937986 233.92927715327824 1758.4717608295614 1911.2475340854435 292.23687344137579 209.70642668235814 454.32158785476349 243.60040895245038 2372.0469641457603 36949.904768750217 14.434380328282712 1046.189062317455 1637.1860743030265 1574.3585825839546
leaf_count=205191 3645 4397 63881 42572 106039 1229605 11252 94380 561270 169366 48295 43896 10456 27496 146058 86089 463454 2999 378796 15374 32870 39315 201148 28368 41075 3555058 378 121091 17467 384773
internal_value=0 -0.00255656 0.00752445 0.0220004 -0.00683248 -0.00640766 -0.00630321 -0.00688111 -0.0141481 -0.0342977 0.00484119 -0.00363336 -0.00644565 0.0151804 0.00449047 -0.00867363 -0.0073904 0.0345869 -0.015399 0.0282385 -0.0206454 -0.00268566 -0.0105024 -0.00873342 0.0240572 -0.00557999 0.0628314 0.000772727 0.031812 0.000456795
internal_weight=0 66738 19876.6 8651.83 46861.4 46147.7 46071.6 43800.3 6651.38 713.786 2271.31 11224.7 8338.22 778.794 2886.51 7559.43 7221.21 400.7 2672.3 6036.6 2050.71 4548.91 5396.18 4941.86 4125.36 37148.9 2715.51 1987.46 1753.31 1817.96
internal_count=8136054 8132031 1416195 120885 6715836 6341279 6235240 6054602 2405164 374557 180638 1295310 1105356 40951 189954 1064405 1000524 13455 497755 78313 411666 502769 1843894 1642746 62939 3649438 4023 169386 21864 413141
is_linear=0
shrinkage=0.05


Tree=13
num_leaves=31
num_cat=0
split_feature=2 0 0 5 13 9 1 0 8 3 13 4 12 5 9 11 9 10 8 10 3 9 12 11 4 0 10 9 11 12
split_gain=4203.71 1165.97 1367.27 378.708 194.991 107.491 102.404 167.476 121.751 119.691 113.724 97.393 83.3426 80.2403 75.4685 72.2055 83.479 71.8419 76.5843 72.362 68.8968 77.0318 66.7915 68.9142 63.5867 58.5125 58.1085 57.7055 70.1843 89.6308
threshold=0.98309081792831432 1.5000000000000002 2.5000000000000004 140.50000000000003 -0.023976586444207335 508.50000000000006 0.2026115953922272 1.0000000180025095e-35 0.016374405645007636 0.031667676862545159 -0.0070242866800559285 0.022866685209638703 15.500000000000002 13.500000000000002 11.500000000000002 2.5000000000000004 5016.5000000000009 10.500000000000002 0.0079517853105704958 14.000000000000002 0.020892903706463028 1246.5000000000002 18.500000000000004 1.0000000180025095e-35 0.01651478779766959 1.0000000180025095e-35 15.500000000000002 9365.5000000000018 3.5000000000000004 10.500000000000002
decision_type=2 2 2 2 2 2 2 2 2 2 2 2 2 2 2 2 2 2 2 2 2 2 2 2 2 2 2 2 2 2
left_child=1 4 3 13 11 -6 7 9 10 15 17 -1 -10 -3 -4 16 -7 18 -8 -19 21 -9 23 -16 -20 -13 -2 28 29 -25
right_child=26 2 14 -5 5 6 8 20 12 -11 -12 25 -14 -15 22 -17 -18 19 24 -21 -22 -23 -24 27 -26 -27 -28 -29 -30 -31
leaf_value=-0.058538424163205975 0.062176205502496112 0.045701547507156853 -0.033113004209200068 0.0070844134772821621 -0.068214419210815336 -0.029088545383031655 -0.064598604984192301 -0.027953629001299808 -0.033692065236745124 -0.029040478636821611 0.034534450330741165 -0.036956071729156631 -0.0020069644670250293 0.027802894166143229 -0.035117083369619446 0.0085875570434002305 -0.010110204234110139 0.027002741121802867 -0.011188319035417459 -0.025346308470620284 -0.0050421583407849382 -0.0083919515137244414 -0.047504381543699195 -0.0081991240461787452 0.016850271576433845 -0.0006469380346931314 -0.0450289524800759 0.024702439895414437 0.010312838165874029 0.0015640794745442809
leaf_weight=244.34687442274299 2644.7144539374858 713.12670616261312 214.02862184081459 2611.2928579452273 70.168759688160208 686.51399594228133 49.741741355857812 678.32944472879171 287.55471732915612 1163.9991668259026 391.61686055397149 227.34641189331887 745.819908781501 5135.1465312223881 162.43826313933823 421.70545283058891 3714.718561601534 436.45049468550133 545.90947460138705 77.777446698222775 34454.637562598975 1950.0381733421236 84.170886716630775 5556.1522798450314 321.16677426063688 216.73742300423328 12.700747492723165 194.21389394649304 930.33061400707811 4074.8219377140558
leaf_count=205191 3645 5110 87526 42572 106039 454933 9484 259140 78082 545757 16282 127063 73325 73203 66354 129337 1173986 16278 39075 20489 3094138 296160 31635 716813 28774 42303 378 5113 45306 342563
internal_value=0 -0.00246934 0.00773959 0.0229164 -0.00677201 -0.00637668 -0.0062822 -0.00689019 0.00288645 -0.0146499 0.0106597 -0.0331852 -0.0108239 0.0299854 -0.00370718 -0.0111768 -0.0130705 0.00412613 -0.004264 0.0190849 -0.00563741 -0.0134404 -0.00313514 -0.00279308 -0.000802769 -0.0192352 0.0616638 -0.00230489 -0.00280154 -0.00406836
internal_weight=0 66360.3 19675.7 8459.57 46684.6 45996.1 45926 43069.9 2856.04 5986.94 1822.66 688.431 1033.37 5848.27 11216.2 4822.94 4401.23 1431.05 916.818 514.228 37083 2628.37 11002.1 10918 867.076 444.084 2657.42 10755.5 10561.3 9630.97
internal_count=8136054 8132031 1416195 120885 6715836 6341279 6235240 5953451 281789 2304013 130382 374557 151407 78313 1295310 1758256 1628919 114100 77333 36767 3649438 555300 1207784 1176149 67849 169366 4023 1109795 1104682 1059376
is_linear=0
shrinkage=0.05


Tree=14
num_leaves=31
num_cat=0
split_feature=2 0 0 5 13 4 12 1 8 5 13 4 4 13 9 8 9 12 8 8 8 8 2 9 3 2 3 5 8 4
split_gain=3969.43 1027.31 1290.34 351.98 168.471 239.886 157.611 113.548 82.7904 75.3519 73.2461 126.829 105.18 73.7796 69.7298 86.3366 61.5226 59.5702 54.6289 90.3824 84.1579 159.557 72.7952 62.5017 69.3556 54.1545 53.7542 52.2607 50.5218 97.5234
threshold=0.98309081792831432 1.5000000000000002 2.5000000000000004 140.50000000000003 -0.015249624667858388 0.014022392015347069 14.500000000000002 0.45983688533306127 0.016280227664999872 39.500000000000007 0.010343141460870411 0.011289573707757928 0.013345027844733555 0.022061472825271451 10049.000000000002 0.033178929256187518 508.50000000000006 1.5000000000000002 0.024397247685970246 0.022526703410040736 0.025053265488620392 0.032675440504279112 0.90855079889297496 1200.5000000000002 0.028678382176781571 0.94952139258384716 0.046181529298044456 1.5000000000000002 0.11683885500001988 0.031559651842636038
decision_type=2 2 2 2 2 2 2 2 2 2 2 2 2 2 2 2 2 2 2 2 2 2 2 2 2 2 2 2 2 2
left_child=1 4 3 9 5 -1 14 16 -9 -3 12 13 18 -12 15 -7 -6 -13 19 23 22 -22 -20 24 -4 -25 -16 -23 -19 -30
right_child=-2 2 10 -5 7 6 -8 8 -10 -11 11 17 -14 -15 26 -17 -18 28 20 -21 21 27 -24 25 -26 -27 -28 -29 29 -31
leaf_value=-0.052198582855094017 0.060592459123046088 0.035917530513384963 -0.0012840563335552962 0.0066958978381007192 -0.067582350505138819 -0.02346620788552551 -0.045054359847157964 0.021644658544307603 -0.0076999249672354414 0.02425690785638988 -0.023133843947346036 -0.038476418962738915 -0.0062063007363900233 -0.070516677478135059 0.009426711163306194 0.0087984852420337194 -0.0060624095267329684 -0.0029105850971388346 0.042707482537664945 -0.035792952898060684 -0.025057931139728873 -0.097858884873749524 0.0056556717298966329 0.020037536677709619 -0.052962088992528078 -0.033278847784143036 -0.045510055597711985 0.018268368824292638 -0.068687790936144077 0.028112037048102875
leaf_weight=448.30877260211855 2600.4358922285028 2265.2388810519624 935.50328198447824 2610.436587520293 40.677631207217928 740.95330330805155 304.26608135312563 644.29557620320702 383.38795097410912 3567.1854196466156 272.28113344463054 138.50746309343958 5035.3382301929232 117.65492742595961 676.79403143277159 287.90091603144538 42786.061994836404 2114.1371400301286 327.67561868368648 167.69846687250538 332.91393334197346 9.8203256363049132 222.63014247163665 554.19649452739395 69.76646388595691 52.104807357187383 47.663112061913125 720.57687366666505 78.507380684430245 38.918059512972832
leaf_count=303038 4023 23754 106814 42572 73652 344481 176403 19788 33750 54559 40239 25140 602864 34015 153859 27031 5563173 267053 7576 31563 61066 2564 12386 27332 13276 4661 20661 31188 24359 3214
internal_value=0 -0.00238769 0.00719922 0.0219558 -0.00644722 -0.0190564 -0.0118353 -0.00572672 0.0106974 0.0287857 -0.0039364 -0.011006 -0.00162131 -0.0374306 -0.0060705 -0.0144377 -0.00612084 -0.00665849 0.00518321 -0.000858721 0.0118454 0.00363076 0.0277179 0.0027765 -0.00487055 0.0154556 0.00581234 0.016707 -0.00468363 -0.0366056
internal_weight=0 65991.4 19631.1 8442.86 46360.3 2505.89 2057.58 43854.4 1027.68 5832.42 11188.2 2760.01 8428.22 389.936 1753.31 1028.85 42826.7 2370.07 3392.89 1779.27 1613.62 1063.31 550.306 1611.57 1005.27 606.301 724.457 730.397 2231.56 117.425
internal_count=8136054 8132031 1416195 120885 6715836 1025473 722435 5690363 53538 78313 1295310 394020 901290 74254 546032 371512 5636825 319766 298426 183646 114780 94818 19962 152083 120090 31993 174520 33752 294626 27573
is_linear=0
shrinkage=0.05


Tree=15
num_leaves=31
num_cat=0
split_feature=2 0 0 5 13 1 0 6 5 1 4 5 5 3 9 4 12 4 4 3 8 13 8 8 8 2 8 9 10 8
split_gain=3750.7 994.422 1168.94 326.952 153.489 115.759 115.992 136.745 118.677 117.307 88.6802 82.9703 71.3556 63.5686 69.9419 68.9412 68.7401 92.4513 67.9533 60.4896 58.848 70.3405 91.2827 111.819 109.625 97.094 96.4032 109.559 98.807 99.9049
threshold=0.98309081792831432 1.5000000000000002 2.5000000000000004 140.50000000000003 -0.023976586444207335 0.26474469900131231 1.0000000180025095e-35 4.5000000000000009 53.500000000000007 0.055646630004048354 0.022866685209638703 43.500000000000007 13.500000000000002 0.025149327030247127 1246.5000000000002 0.0081804107339468069 6.5000000000000009 0.0084474355196608678 0.013195658467040109 0.025558293063939242 0.0057743409813452639 -0.0081336133717545556 0.025296843325919253 0.024528558993006554 0.016890939497058752 0.92266815900802623 0.032675440504279112 50.500000000000007 11.500000000000002 0.029437763826289636
decision_type=2 2 2 2 2 2 2 2 2 2 2 2 2 2 2 2 2 2 2 2 2 2 2 2 2 2 2 2 2 2
left_child=1 4 3 12 10 6 7 -6 9 -9 -1 -7 -3 14 15 -8 18 -18 -16 -13 -4 -22 23 24 -23 -25 28 -28 -24 -30
right_child=-2 2 20 -5 5 11 13 8 -10 -11 -12 19 -14 -15 16 -17 17 -19 -20 -21 21 22 26 25 -26 -27 27 -29 29 -31
leaf_value=-0.056141791353757742 0.059557821186283715 0.042673218508606267 0.014831709986548687 0.0064803560632024724 -0.061271012762353583 0.021192075728607575 -0.047374736167572304 -0.013640963011091661 -0.020812056726259916 0.00365150418334881 -0.017127551460913167 0.0095428030675549693 0.025731382257094499 -0.0042837041344954618 0.0060434571955810465 -0.014195956973038376 -0.034666075255525751 -0.0080517108811503282 -0.01265619111307289 -0.0096849753409985126 -0.011360109826603201 0.0098581656433414967 -0.036249877347713184 0.029687388215110203 -0.016630136344205623 -0.0086899152639520385 -0.026072562721811049 -0.00051874617684490585 -0.033995094972269969 0.029398175568077112
leaf_weight=221.59520607281593 2544.927946534357 707.58577738911845 421.65184035850689 2605.8165645597619 141.86307505232253 591.47371789871249 168.91411835711915 2377.2439474132261 2259.3043986670964 1669.480226690881 425.01069344516145 771.72099600348156 5109.0453752973117 27953.545871149458 1618.8273268865305 2141.7413952328498 356.01672822551336 3909.6048079284374 694.15346487634815 870.35090769748786 2604.3724341023481 881.46556999417953 464.5187189153512 671.71137955720769 701.44490359534393 218.39502177498071 463.11308674892643 4448.5931858306067 107.91978025075514 146.54180278448621
leaf_count=205191 4023 5110 13349 42572 165080 24098 93912 1030723 927249 388151 169366 52549 73203 2322358 180072 525392 74600 367760 85344 103991 339836 66671 155861 21636 126279 16849 115801 415216 12311 11501
internal_value=0 -0.0023062 0.00714491 0.0211986 -0.0063085 -0.00596493 -0.00653763 -0.0127243 -0.0116321 -0.00650694 -0.0304979 0.00513516 0.0277923 -0.0054549 -0.00913789 -0.0166214 -0.0065094 -0.010273 0.000431467 -0.000648538 -0.00349027 -0.00421174 -0.00191439 0.00609298 -0.00187976 0.0202712 -0.00543125 -0.00292815 -0.0225311 0.00251244
internal_weight=0 65723 19552.2 8422.45 46170.8 45524.2 43290.7 6447.89 6306.03 4046.72 646.606 2233.55 5816.63 36842.8 8889.26 2310.66 6578.6 4265.62 2312.98 1642.07 11129.7 10708.1 8103.7 2473.02 1582.91 890.106 5630.69 4911.71 718.98 254.462
internal_count=8136054 8132031 1416195 120885 6715836 6341279 6160641 2511203 2346123 1418874 374557 180638 78313 3649438 1327080 619304 707776 442360 265416 156540 1295310 1281961 942125 231435 192950 38485 710690 531017 179673 23812
is_linear=0
shrinkage=0.05


Tree=16
num_leaves=31
num_cat=0
split_feature=2 0 0 5 9 1 13 4 12 12 5 8 12 8 9 8 9 2 8 8 8 8 8 9 9 8 12 8 8 8
split_gain=3544.72 921.267 1065.61 308.664 137.658 118.685 154.647 192.287 107.25 76.9725 67.7734 65.7664 73.5776 64.3215 72.7794 61.7503 61.6385 79.49 55.9389 100.824 110.48 188.525 166.454 114.937 96.1175 81.7389 73.4363 68.6265 137.124 229.221
threshold=0.98309081792831432 1.5000000000000002 2.5000000000000004 140.50000000000003 508.50000000000006 0.50227361917495739 -0.0109237096027716 0.011038363149528819 14.500000000000002 15.500000000000002 39.500000000000007 0.016141816070447988 12.500000000000002 0.033338646486914876 9969.0000000000018 0.011023177406150201 3743.0000000000005 0.95455321669578563 0.0049918255965555932 0.016255695114121494 0.016890939497058752 0.024486811211387554 0.025018197903104465 1768.5000000000002 554.50000000000011 0.014556166605355766 9.5000000000000018 0.033098944508847671 0.033773305084745762 0.040430911967720549
decision_type=2 2 2 2 2 2 2 2 2 2 2 2 2 2 2 2 2 2 2 2 2 2 2 2 2 2 2 2 2 2
left_child=1 4 3 10 -1 6 7 -6 13 -10 -3 12 -7 14 15 -9 18 -18 -4 25 -21 26 23 24 -23 -20 -22 -24 -29 -30
right_child=-2 2 16 -5 5 11 -8 8 9 -11 -12 -13 -14 -15 -16 -17 17 -19 19 20 21 22 27 -25 -26 -27 -28 28 29 -31
leaf_value=-0.064871034512247766 0.058575675983459655 0.033484911331304212 0.014410478602806705 0.0059928561562185585 -0.048614955797467468 -0.0012171490397712098 -0.0054776950638341093 -0.038664771485641555 -0.06354798534447309 -0.021408052637683292 0.022400511947043806 -0.0064551968133192807 0.029955159694137846 0.0092797452371401103 -0.0015499554749681254 -0.013344485346851846 0.016363452520661768 -0.030643677387916207 -0.010570943878161869 0.011752369967536529 -0.043317916702459353 0.0026522852170591761 -0.01549492638497235 -0.071276075223340465 0.035182842641276878 -0.040510878579771321 -0.011911126780986409 0.01038532731069104 -0.05680009582722706 -0.0048525233113867654
leaf_weight=99.442074261984089 2487.9769692919217 2252.959394596779 382.63420338882133 2607.5529834749759 401.58316251233919 309.30285395326791 40497.858470039879 304.80646238397458 142.64841500268085 450.88760445613298 3555.1231657443568 427.02112340903841 487.90524091155385 444.63883759238524 1086.5018203368527 1146.5303050366929 682.97326170190354 103.57276811555494 778.29628328536637 1072.0907049482048 413.01855700684246 423.41294667673355 1418.0767345561762 35.763634855684359 489.67467720143031 322.39414607046638 338.80556929158047 1364.362758324598 228.38959447439993 3024.8430342415813
leaf_count=161259 4023 23754 11263 42572 208747 17039 5078832 209916 128679 197023 54559 34050 13561 28830 289441 348459 28288 13202 135290 53338 130917 25958 235156 2929 11619 72886 59149 47851 88022 379442
internal_value=0 -0.00223201 0.00687148 0.0202841 -0.00610682 -0.00597895 -0.0064017 -0.0158095 -0.0121254 -0.0315358 0.0267002 0.00937921 0.0178608 -0.0082626 -0.0113361 -0.0186622 -0.0033174 0.0101735 -0.00434844 -0.00507281 -0.00328995 -0.00537449 -0.00281368 0.0166539 0.0200979 -0.0193404 -0.0291646 -0.00587413 -0.00291955 -0.00849945
internal_weight=0 65293.1 19493.9 8415.64 45799.1 45699.7 44475.5 3977.6 3576.01 593.536 5808.08 1224.23 797.208 2982.48 2537.84 1451.34 11078.3 786.546 10291.8 9909.13 8808.44 7736.35 6984.52 948.851 913.088 1100.69 751.824 6035.67 4617.6 3253.23
internal_count=8136054 8132031 1416195 120885 6715836 6554577 6489927 1411095 1202348 325702 78313 64650 30600 876646 847816 558375 1295310 41490 1253820 1242557 1034381 981043 790977 40506 37577 208176 190066 750471 515315 467464
is_linear=0
shrinkage=0.05


Tree=17
num_leaves=31
num_cat=0
split_feature=2 0 0 5 9 1 0 3 5 9 3 10 11 8 9 10 13 9 8 2 5 12 12 11 9 2 10 3 13 2
split_gain=3359.4 870.505 959.977 289.57 126.092 117.826 161.093 174.152 93.7566 82.7396 79.2584 76.1524 124.909 129.262 105.672 92.3396 94.7764 77.0443 74.7007 72.1711 65.6397 60.3773 57.285 86.7959 56.9288 69.7572 56.0054 55.7404 54.4053 49.673
threshold=0.98309081792831432 1.5000000000000002 2.5000000000000004 140.50000000000003 508.50000000000006 0.2026115953922272 1.0000000180025095e-35 0.033678714331688481 100.50000000000001 6405.0000000000009 0.019263304680552939 8.5000000000000018 3.5000000000000004 0.033773305084745762 632.50000000000011 5.5000000000000009 -0.015249624667858388 58.500000000000007 0.041178403228513155 0.93424078822135936 13.500000000000002 17.500000000000004 13.500000000000002 1.5000000000000002 1768.5000000000002 0.94149798154830944 15.500000000000002 0.033678714331688481 -0.0064993426030471131 0.93424078822135936
decision_type=2 2 2 2 2 2 2 2 2 2 2 2 2 2 2 2 2 2 2 2 2 2 2 2 2 2 2 2 2 2
left_child=1 4 3 20 -1 6 7 9 10 -6 -7 12 15 14 -14 29 19 -18 -15 -17 -3 22 23 27 -16 -26 -2 -8 -9 -4
right_child=26 2 11 -5 5 8 21 28 -10 -11 -12 -13 13 18 24 16 17 -19 -20 -21 -22 -23 -24 -25 25 -27 -28 -29 -30 -31
leaf_value=-0.063900369833497644 0.058204781419565171 0.039980565730607598 0.00014903452972240874 0.0055785910462890654 -0.02004267395996942 0.036194470236266409 -0.012204477515269797 -0.040772177978639773 -0.0081916897625955356 -0.0059905386312897255 0.006576658535213809 0.0040319052291335703 -0.010725640977300083 -0.061406307904313354 0.049339898644959364 -0.046847673740361057 -0.027726757924436692 -0.006482494570856776 0.0010234919600035741 -0.0071944462941549731 0.023667246001215236 -0.021721294964820611 -0.0015987140350957035 -0.0053975616534657168 -0.065198802014977672 0.04326746501663218 -0.05010647539568424 -0.033768358555496182 -0.015599848832397033 0.026252868074029795
leaf_weight=93.651582821708871 2421.8660768910777 701.40463186291163 1142.509632014524 2607.1338368949364 1501.9621417743037 264.91898404434323 1399.8854715630878 698.35231974101043 994.50972746105981 3462.2883600648202 1532.861972038052 2833.1662919507799 132.21560351731023 67.250243195623625 325.57848113356158 294.05823661992326 465.86846983031137 5085.5765118567942 166.66664026555372 188.18088255694602 5101.6074001794914 547.02065175859025 9280.8171729490277 25037.992978348309 26.058684590971097 34.379311543307267 11.994123860727994 381.30705188942375 309.90765085397288 216.83032265439397
leaf_count=161259 3645 5110 158958 42572 900693 10238 282372 468254 178391 1040749 110356 189954 12318 7425 7908 63283 162341 630276 9847 32386 73203 186255 869190 2297145 2200 1253 378 90138 120796 17161
internal_value=0 -0.00216296 0.00670887 0.0194203 -0.00594298 -0.00582345 -0.00647536 -0.0140899 0.00412672 -0.0102421 0.0109411 -0.00302895 -0.00548496 0.0139273 0.0278532 -0.00745992 -0.0101122 -0.00826528 -0.0169248 -0.0313741 0.025639 -0.00523438 -0.00498456 -0.00615623 0.041067 -0.00349928 0.057671 -0.0168207 -0.033035 0.0043129
internal_weight=0 64894 19388.5 8410.15 45505.5 45411.8 42619.5 5972.51 2792.29 4964.25 1797.78 10978.3 8145.17 752.149 518.232 7393.02 6033.68 5551.44 233.917 482.239 5803.01 36647 36100 26819.2 386.016 60.438 2433.86 1781.19 1008.26 1359.34
internal_count=8136054 8132031 1416195 120885 6715836 6554577 6255592 2530492 298985 1941442 120594 1295310 1105356 40951 23679 1064405 888286 792617 17272 95669 78313 3725100 3538845 2669655 11361 3453 4023 372510 589050 176119
is_linear=0
shrinkage=0.05


Tree=18
num_leaves=31
num_cat=0
split_feature=2 0 0 5 9 1 13 11 9 8 2 9 10 11 8 2 3 13 2 4 4 5 8 9 9 9 8 9 11 4
split_gain=3189.29 789.292 897.14 271.04 114.582 109.75 108.631 68.7389 81.8715 75.5924 78.5142 76.4369 68.0366 65.4421 83.1594 110.338 102.108 82.1241 81.1159 65.0898 63.7113 63.2683 62.1353 87.5161 76.5298 97.6152 67.6516 62.116 59.4101 58.9676
threshold=0.98309081792831432 1.5000000000000002 2.5000000000000004 140.50000000000003 508.50000000000006 0.85932412743568432 -0.022797941685821905 3.5000000000000004 9365.5000000000018 0.016374405645007636 0.93581497669219982 597.50000000000011 8.5000000000000018 2.5000000000000004 0.033061933046156365 0.92473754286766063 0.034026649468594662 0.014615413823740282 0.91041475534439098 0.012794473010272376 0.0084474355196608678 39.500000000000007 0.030324693040857602 116.50000000000001 515.50000000000011 597.50000000000011 0.02427949867885763 660.50000000000011 1.5000000000000002 0.032416887003590127
decision_type=2 2 2 2 2 2 2 2 2 2 2 2 2 2 2 2 2 2 2 2 2 2 2 2 2 2 2 2 2 2
left_child=1 4 3 21 -1 6 29 8 12 -9 11 -11 13 14 16 -16 18 -17 20 -19 -4 -3 23 -14 28 -26 -27 -15 -25 -6
right_child=-2 2 7 -5 5 -7 -8 9 -10 10 -12 -13 22 27 15 17 -18 19 -20 -21 -22 -23 -24 24 25 26 -28 -29 -30 -31
leaf_value=-0.062997661604686436 0.056863577445745328 0.031238137026396162 0.031332378084036161 0.005248656461279754 -0.040239780766529544 0.016282089359133025 -0.0055820542899434888 -0.070085315826152392 0.029572326668816169 -0.0065283178147858521 -0.018234707327701889 0.030019154940409545 0.026175192400149649 -0.031280963227397075 -0.010263239672980089 0.015204941744152378 -0.033456405206864152 -0.038252574350217151 -0.017032020467012309 0.0008969002162576734 -0.0032782169756206316 0.020514035260732873 -0.011557866835376965 -0.082703647450210402 0.043535415391653724 -0.0063455364707050103 0.023820163959990075 0.013003668883772846 -0.010675019618747434 -0.009598890627894454
leaf_weight=87.120518458170409 2378.2084771858063 2243.6426470840815 152.11654252983863 2605.2565586484561 348.25070124672493 565.78522786305984 43917.865964411001 28.484397591673769 175.49402870761696 197.94309647311457 166.58542345039314 516.00824182925862 430.84311170363799 468.28043262692518 1696.9237751402252 1205.7502822503739 476.84436144822394 129.35477816930506 1266.0230814968672 592.34973560989602 1056.1334995615325 3553.6738481647626 653.51379785320751 30.377915989956819 167.1371488145378 669.99089751538122 257.21677741434542 95.2986078026006 496.94859679530782 285.94436136359582
leaf_count=161259 4023 23754 14747 42572 270543 21598 6164667 4713 4395 16563 15093 14345 24292 151364 218204 72381 108536 26191 208082 70587 172620 54559 45480 4546 6530 49918 12789 17907 36027 97769
internal_value=0 -0.00209544 0.00636001 0.0186445 -0.00571146 -0.00560084 -0.00587874 -0.00308414 -0.00427843 0.0100811 0.0126744 0.0198864 -0.00488184 -0.00744088 -0.00603938 -0.00096553 -0.0122708 0.00722014 -0.00818786 -0.00612006 0.0010792 0.0246644 0.00186944 0.00614465 0.000822965 0.00836288 0.00202273 -0.0237926 -0.0148244 -0.0264245
internal_weight=0 64537.2 19332.2 8402.57 45205 45117.8 44552.1 10929.6 10020.6 909.021 880.537 713.951 9845.1 7139.08 6575.5 3624.38 2951.12 1927.45 2474.27 721.705 1208.25 5797.32 2706.03 2052.51 1621.67 1094.34 927.208 563.579 527.327 634.195
internal_count=8136054 8132031 1416195 120885 6715836 6554577 6532979 1295310 1244596 50714 46001 30908 1240201 1060619 891348 387363 503985 169159 395449 96778 187367 78313 179582 134102 109810 69237 62707 169271 40573 368312
is_linear=0
shrinkage=0.05


Tree=19
num_leaves=31
num_cat=0
split_feature=2 0 0 5 9 1 13 4 8 11 9 8 5 0 8 9 11 12 2 2 9 2 10 9 8 8 8 4 13 10
split_gain=3028.67 840.295 765.338 253.929 104.198 93.6051 109.157 90.1881 65.2139 63.5122 68.6416 66.7859 60.5001 58.7583 56.9037 56.8468 56.3875 59.7109 65.4281 55.5588 55.3907 55.0481 73.7136 55.4506 53.4246 170.545 145.078 97.966 160.254 69.3397
threshold=0.98309081792831432 1.5000000000000002 2.5000000000000004 140.50000000000003 508.50000000000006 0.50227361917495739 -0.017738003848626161 0.014115476883320198 0.016280227664999872 3.5000000000000004 5193.0000000000009 0.0049918255965555932 12.500000000000002 1.0000000180025095e-35 0.029112286459095339 597.50000000000011 2.5000000000000004 5.5000000000000009 0.94542473554611217 0.82445862889289867 9969.0000000000018 0.90419051051139843 15.500000000000002 660.50000000000011 0.033297701139688336 0.033338646486914876 0.033193688541018763 0.013644494286779083 0.028620011077054711 14.000000000000002
decision_type=2 2 2 2 2 2 2 2 2 2 2 2 2 2 2 2 2 2 2 2 2 2 2 2 2 2 2 2 2 2
left_child=1 4 3 12 -1 6 7 -6 -7 10 11 -4 -3 20 -10 -11 -13 18 -18 -12 -9 22 -17 -23 26 -26 29 28 -27 -8
right_child=-2 2 9 -5 5 8 24 13 14 15 19 16 -14 -15 -16 21 17 -19 -20 -21 -22 23 -24 -25 25 27 -28 -29 -30 -31
leaf_value=-0.062191343057714489 0.0560480956712947 0.038409735862049849 0.016543263611158009 0.0050919792130563737 -0.053630591177045078 0.015241780470563042 -0.0058356383320270428 -0.037156168813697418 -0.038802335324142317 -0.01010435169793928 0.04954425313039254 -0.0039968163854553719 0.022103669602471697 -0.0020992095120931512 0.0043875775915246142 0.042427637123543811 -0.02180554452097953 -0.031993587238968182 0.03598372028976228 0.006811792366087587 -0.0072996928034691246 0.050591396337166278 -0.018593190808006747 -0.0070985185525740541 0.01583151791180383 -0.0080646659233420664 -0.033165577630539442 -0.0024843557081456026 -0.043025241448167779 -0.016395650765368724
leaf_weight=81.61443196961045 2326.1844978090958 639.51777227447019 373.58175014256267 2598.9772859717777 175.09160092825186 876.28516738739563 18975.015293665288 382.46162201024708 117.09387118788436 238.08269986213418 94.16208418214228 8439.0361634483197 5147.8861129041616 493.41847846383462 218.70768224820495 288.59532392103574 120.50041903788224 374.24143230484333 82.520651767787058 395.74273026396986 261.60122144801426 50.125069050991442 59.735789055877831 246.44034453679342 1049.6730661125039 6050.4120619411697 531.15624186384957 13931.815538248629 346.56154474295909 1693.2247660778812
leaf_count=161259 4023 4596 11274 42572 162474 34288 2840606 297066 17473 23982 1461 1034176 73717 98720 12889 5810 30600 135076 12424 19585 132353 1245 3149 16528 120623 711180 60295 1219223 165716 681671
internal_value=0 -0.00202661 0.00675121 0.0180751 -0.00574666 -0.00564453 -0.00602306 -0.0202248 0.00806232 -0.00207242 -0.00322068 -0.00417263 0.0239055 -0.0150826 -0.0106727 0.0107756 -0.00503098 -0.0201494 0.00168368 0.0150252 -0.0250293 0.018484 0.0319631 0.00265215 -0.00558525 -0.00382156 -0.00736384 -0.00483634 -0.00995869 -0.00670076
internal_weight=0 64333.3 19149.1 8386.38 45184.1 45102.5 43890.4 1312.57 1212.09 10762.8 9879.79 9389.88 5787.4 1137.48 335.802 882.979 9016.3 577.263 203.021 489.905 644.063 644.897 348.331 296.565 42577.9 21378.5 21199.4 20328.8 6396.97 20668.2
internal_count=8136054 8132031 1416195 120885 6715836 6554577 6489927 690613 64650 1295310 1244596 1223550 78313 528139 30362 50714 1212276 178100 43024 21046 429419 26732 8959 17773 5799314 2216742 3582572 2096119 876896 3522277
is_linear=0
shrinkage=0.05


Tree=20
num_leaves=31
num_cat=0
split_feature=2 0 0 5 9 1 13 4 10 10 11 9 8 0 5 8 3 8 10 2 2 8 8 12 13 4 13 5 4 3
split_gain=2882.46 766.893 726.975 239.966 95.4386 91.3076 102.24 77.0993 66.1001 114.624 61.9364 64.0219 63.4809 60.2483 58.4527 53.9489 56.5551 53.3412 52.0567 51.3746 68.9694 50.9449 248.891 50.2766 49.7788 64.1937 131.696 63.225 50.7724 50.7498
threshold=0.98309081792831432 1.5000000000000002 2.5000000000000004 140.50000000000003 508.50000000000006 0.42581452429294592 -0.017738003848626161 0.014115476883320198 14.000000000000002 12.500000000000002 3.5000000000000004 9365.5000000000018 0.0057743409813452639 1.0000000180025095e-35 39.500000000000007 0.0080534189950598987 0.021682466229132159 0.016374405645007636 15.500000000000002 0.90419051051139843 0.90377989411354076 0.032101441976237037 0.028564558750571858 18.500000000000004 -0.0081336133717545556 0.0095878885584616651 0.013206957510340083 83.500000000000014 0.0083386806079802835 0.041339441136051307
decision_type=2 2 2 2 2 2 2 2 2 2 2 2 2 2 2 2 2 2 2 2 2 2 2 2 2 2 2 2 2 2
left_child=1 4 3 14 -1 6 7 -6 9 15 11 12 -4 -9 -3 -7 -17 -12 21 20 -19 22 -2 24 28 26 -26 29 -14 -27
right_child=18 2 10 -5 5 8 -8 13 -10 -11 17 -13 23 -15 -16 16 -18 19 -20 -21 -22 -23 -24 -25 25 27 -28 -29 -30 -31
leaf_value=-0.061451127171814592 0.056628841913791896 0.02948922004214621 0.015422444756084897 0.0048468888705552769 -0.052058886752061551 -0.059194864122436713 -0.0054197522505354369 -0.025841164401527224 -0.038426059862048799 0.032131611131774949 -0.069092033776081835 0.02634354739373905 -0.058120174364091448 -0.0022184252809519705 0.019158707432082343 0.025842108102841644 -0.0041634663016997323 0.01542971047902326 -0.050495390772868964 -0.0015981568041482548 0.069062276847189491 0.058005252143477543 -0.10592995951867762 -0.046873451605958072 0.013556484198487552 -0.010998589020926333 -0.052370655304455095 0.0015081991951432598 -0.0098898602945694056 0.0082963648221850081
leaf_weight=76.155337250645971 141.04135627218056 2230.2802576905087 408.80237019166816 2596.5535562760779 162.40148692438379 36.827134316728916 42262.809842610543 595.19831535534468 75.580894540093141 397.98187785115442 20.519838330394123 178.68367060448509 56.076576411142014 493.88105448218994 3547.0795493067708 202.22537140134955 702.80863359486102 415.60763721837429 11.5617810820695 368.26617351558525 70.045813930220902 2092.4225524222129 28.265532472636551 70.168024069367675 1023.2777491007582 3067.33804257476 81.806418591877446 2566.4677394879836 2026.4956263385684 383.38512587104924
leaf_count=161259 387 23754 13225 42572 162233 5057 5781803 425743 20569 9775 4713 4395 11798 98720 54559 6704 43973 18356 378 27331 314 3088 170 34071 75882 411618 28050 329411 310985 25161
internal_value=0 -0.00196174 0.00642989 0.0174723 -0.00552508 -0.00543029 -0.00583681 -0.019921 0.00706739 0.00963369 -0.00218231 -0.00331308 -0.00386029 -0.0151286 0.0231467 0.00012723 0.00254113 0.0105713 0.0553297 0.0124856 0.0231651 0.0558707 0.0294899 -0.00471019 -0.00438878 -0.00240052 0.00867607 -0.00443478 -0.0111885 -0.00885486
internal_weight=0 64116.7 19110.9 8373.91 45005.9 44929.7 43514.3 1251.48 1415.42 1339.84 10736.9 9862.5 9683.82 1089.08 5777.36 941.861 905.034 874.439 2273.29 853.92 485.653 2261.73 169.307 9275.02 9204.85 7122.28 1105.08 6017.19 2082.57 3450.72
internal_count=8136054 8132031 1416195 120885 6715836 6554577 6468499 686696 86078 65509 1295310 1244596 1240201 524463 78313 55734 50677 50714 4023 46001 18670 3645 557 1226976 1192905 870122 103932 766190 322783 436779
is_linear=0
shrinkage=0.05


Tree=21
num_leaves=31
num_cat=0
split_feature=2 0 0 5 1 13 0 8 8 8 12 8 8 9 12 2 2 2 9 9 8 10 2 5 9 8 8 8 8 9
split_gain=2832.03 722.69 681.456 224.3 96.8347 107.693 69.4644 57.6822 137.12 146.301 108.816 105.852 98.7741 75.2152 67.4973 73.893 154.46 67.3229 65.1414 64.4559 81.318 58.8032 74.2627 57.353 56.1554 59.0735 114.742 75.2202 160.538 88.9527
threshold=0.98309081792831432 1.5000000000000002 2.5000000000000004 140.50000000000003 0.50227361917495739 -0.020453774040486632 1.0000000180025095e-35 0.025296843325919253 0.024528558993006554 0.016890939497058752 9.5000000000000018 0.028564558750571858 0.016374405645007636 1089.5000000000002 5.5000000000000009 0.92266815900802623 0.94475334882736217 0.8316478729248048 1016.5000000000001 9365.5000000000018 0.0057743409813452639 6.5000000000000009 0.8425637185573579 66.500000000000014 58.500000000000007 0.032675440504279112 0.030324693040857602 0.033773305084745762 0.040430911967720549 515.50000000000011
decision_type=2 2 2 2 2 2 2 2 2 2 2 2 2 2 2 2 2 2 2 2 2 2 2 2 2 2 2 2 2 2
left_child=1 4 3 -3 5 6 -1 8 9 12 -11 -9 19 18 -10 21 -17 -13 -14 20 -4 22 -16 -6 -19 26 -26 -27 -29 -30
right_child=-2 2 7 -5 23 -7 -8 11 14 10 -12 17 13 -15 15 16 -18 24 -20 -21 -22 -23 -24 -25 25 27 -28 28 29 -31
leaf_value=-0.03608110160381247 0.055907729195685291 0.022426279395127226 0.014062269066513963 0.0047171910526165785 0.020742161988231912 -0.0054164226236476784 -0.0069441985227128439 -0.04902915196992929 -0.0015387562441642215 -0.037724405145367748 -0.003640995558341598 -0.024729232130175211 0.012527309376491019 0.048145831159900468 0.061964335383177055 -0.076864246163777836 0.035453413481059959 -0.019093404425382914 -0.089809312936835792 0.028451877952036648 -0.011182937924598475 0.035828747562942354 -0.085685194153747701 -0.0012943843239966758 0.0061135160482834634 0.009346598102649737 -0.04012801209823541 -0.054720250044386701 0.0057240567082119422 -0.013551805797711021
leaf_weight=475.68557743920246 2190.1275530303828 5768.949628350616 409.83285609167069 2591.1361541300721 539.56339685653802 42855.468393421186 358.88964094506809 136.23164139455184 332.32116980219143 444.0927399485081 495.42427408476942 381.0901377758928 660.76764015690424 160.96882882667705 13.709762749160289 50.977513761550654 76.61135107226437 490.23125861413428 15.92492362775374 150.39126651897095 1438.984211076604 615.50008663238259 22.480835436610505 652.12077507076901 268.76627577119507 1568.2193288096023 267.84583468153141 149.81463764113141 1604.0806384796742 954.74037642747862
leaf_count=456335 4023 78313 13283 42572 18384 6091440 103411 44719 19266 139304 64403 55279 35665 3128 422 6711 5774 135645 947 3131 231997 17079 2098 46266 35842 53885 93146 67336 171333 94917
internal_value=0 -0.00191468 0.00623974 0.0169375 -0.00537928 -0.00576284 -0.0235515 -0.00211157 0.00189295 -0.00265056 -0.0197516 -0.00547422 0.00301298 0.0174264 0.0173284 0.0253742 -0.00942256 -0.00443046 0.010119 -0.00302619 -0.00558676 0.0321868 -0.0297524 0.00868319 -0.00297192 -0.00133002 -0.0169676 0.00063201 -0.00441348 -0.0014681
internal_weight=0 63950.8 19069.1 8360.09 44881.7 43690 834.575 10709 4887.99 3776.39 939.517 5821.02 2836.87 837.661 1111.6 779.28 127.589 5684.79 676.693 1999.21 1848.82 651.691 36.1906 1191.68 5303.7 4813.47 536.612 4276.85 2708.64 2558.82
internal_count=8136054 8132031 1416195 120885 6715836 6651186 559746 1295310 543208 491858 203707 752102 288151 39740 51350 32084 12485 707383 36612 248411 245280 19599 2520 64650 652104 516459 128988 387471 333586 266250
is_linear=0
shrinkage=0.05


Tree=22
num_leaves=31
num_cat=0
split_feature=2 0 2 5 1 0 3 8 11 9 13 13 5 3 4 8 8 10 5 8 11 8 8 12 8 8 9 1 2 2
split_gain=2694.03 732.203 600.868 220.754 93.0719 136.4 140.789 95.1031 92.5637 82.8593 82.816 62.8367 67.9479 61.4971 65.4143 60.6868 58.0312 54.7108 50.1009 49.9139 46.9901 45.6903 58.2342 58.5297 58.1146 103.828 52.6347 43.3458 42.748 58.0432
threshold=0.98309081792831432 1.5000000000000002 0.77351558208465587 139.50000000000003 0.2026115953922272 1.0000000180025095e-35 0.033678714331688481 0.016374405645007636 3.5000000000000004 6405.0000000000009 -0.0063241793558717002 -0.010147789744747336 16.500000000000004 0.020892903706463028 0.0063600170683418547 0.023659593130720181 0.0057743409813452639 15.500000000000002 30.500000000000004 0.032487440158324783 1.5000000000000002 0.012838364166847104 0.01216173635649106 12.500000000000002 0.012989955517100442 0.016030878193436172 20038.000000000004 0.0032779552275314931 0.90419051051139843 0.90377989411354076
decision_type=2 2 2 2 2 2 2 2 2 2 2 2 2 2 2 2 2 2 2 2 2 2 2 2 2 2 2 2 2 2
left_child=1 4 3 11 5 6 9 10 16 -1 21 -3 -13 14 -7 -9 20 -2 27 -8 -4 22 23 -6 -23 -26 -27 -11 29 -10
right_child=17 2 8 -5 7 13 19 15 28 18 -12 12 -14 -15 -16 -17 -18 -19 -20 -21 -22 24 -24 -25 25 26 -28 -29 -30 -31
leaf_value=-0.019487780047957457 0.055802147696833185 0.0078780872775793594 -0.051133806980783514 0.0038726180061112963 -0.012175162059510199 -0.050344159898264212 -0.038191936971346069 -0.054339714020455093 0.016400264791250545 -0.026053636627079525 0.03363270737822837 0.035702829588819228 0.020461516268326568 -0.004220023905703878 -0.010612194513436674 -0.0054750004427290312 -0.0042875385556434718 -0.05151291647227061 -0.010890777638922258 -0.013442757013748453 0.020593290948681328 0.027103821099722439 -0.050999667375718295 0.022860334491709433 -0.043978326658911548 0.020711695645305131 -0.035362485166207158 0.0038285722053976682 0.00082009849880557953 0.065335467336532185
leaf_weight=1473.4963465446563 2126.3908541349228 798.06546750152484 24.440548672224395 2703.7435496848484 339.4827150485944 108.24429401918314 661.63758494888316 68.271403674909379 407.13349051593104 132.61584711406613 318.1176638265606 870.71737689495785 4565.6573738186853 33617.073617397808 2411.1149535668083 916.74069920869078 8821.0210053752744 11.943298793165011 1836.1263986755803 294.35794343915768 347.35420255031204 388.31928438093746 62.330580045090755 183.71691886204644 100.90942342786002 317.26222698873607 48.208062335324939 1429.3167889146134 357.04589940403821 71.192731293383986
leaf_count=984573 3645 35441 1966 56146 45911 76920 553316 28345 19739 55062 13191 11917 79572 3169800 478380 124185 1173110 378 621873 113113 8825 17813 7228 11121 18490 29851 2850 363814 29158 321
internal_value=0 -0.00185386 0.0063781 0.0158047 -0.00534613 -0.00592943 -0.013028 0.00357637 -0.00202387 -0.00958521 0.0105442 0.0209794 0.0229026 -0.00478469 -0.0123193 -0.00886182 -0.00347195 0.0552028 -0.00529118 -0.0305715 0.0158782 0.00544436 -0.00531529 0.000127242 0.0128155 0.000918681 0.0133151 0.00129142 0.0139115 0.0236836
internal_weight=0 63673.7 18966.4 8938.18 44707.3 41964 5827.55 2743.36 10028.2 4871.56 1758.35 6234.44 5436.37 36136.4 2519.36 985.012 9192.82 2138.33 3398.06 955.996 371.795 1440.23 585.53 523.2 854.699 466.38 365.47 1561.93 835.372 478.326
internal_count=8136054 8132031 1416195 183076 6715836 6416851 2691751 298985 1233119 2025322 146455 126930 91489 3725100 555300 152530 1183901 4023 1040749 666429 10791 133264 64260 57032 69004 51191 32701 418876 49218 20060
is_linear=0
shrinkage=0.05


Tree=23
num_leaves=31
num_cat=0
split_feature=2 0 0 5 1 0 6 3 8 5 13 11 9 10 5 12 12 2 8 9 10 8 5 3 10 1 2 2 8 8
split_gain=2574.51 675.005 603.924 214.377 98.819 123.949 129.213 92.6586 84.7044 75.5076 72.1048 58.4571 60.1475 60.1393 57.721 56.2622 56.3346 55.4998 62.5767 55.3414 63.29 51.3409 50.725 49.7227 48.9449 48.7671 46.9433 58.1263 80.9487 86.6121
threshold=0.98309081792831432 1.5000000000000002 2.5000000000000004 140.50000000000003 0.2026115953922272 1.0000000180025095e-35 4.5000000000000009 0.033678714331688481 0.016374405645007636 57.500000000000007 -0.0028804471451475094 3.5000000000000004 597.50000000000011 8.5000000000000018 34.500000000000007 15.500000000000002 5.5000000000000009 0.95732456445693981 0.04569727910952049 313.50000000000006 5.5000000000000009 0.0065617563535244035 155.50000000000003 0.016113934470473931 14.000000000000002 0.077368617057800307 0.96649509668350231 0.92233973741531383 0.025053265488620392 0.033298525004814124
decision_type=2 2 2 2 2 2 2 2 2 2 2 2 2 2 2 2 2 2 2 2 2 2 2 2 2 2 2 2 2 2
left_child=1 4 3 14 5 6 -1 9 10 25 22 13 -13 19 -3 16 -10 18 -14 20 21 -4 -6 -7 -11 -8 27 28 -21 -30
right_child=-2 2 11 -5 8 23 7 -9 15 24 -12 12 17 -15 -16 -17 -18 -19 -20 26 -22 -23 -24 -25 -26 -27 -28 -29 29 -31
leaf_value=-0.057067850313091487 0.054695363260714586 0.028641590878272533 -0.078881832971239449 0.0043057100017445367 0.011904787806928436 -0.025696072152061902 -0.0083519850420378152 -0.026559924001453763 -0.0026151753061183342 -0.014504302618607107 0.047230872740183907 -0.010739867415601855 0.027178339326204549 0.0035752025663321006 0.018030389696859918 -0.00064017395483807087 -0.049707219683834701 -0.03148230788394972 -0.051588770400648909 0.0037734240105780519 -0.015296694693126597 0.0042137639809973915 -0.01074796567455729 -0.0045048488796992454 -0.040772024966609866 0.0049734198970176535 -0.026278842069741227 0.0051246431835766104 -0.033910590180685367 -0.0048702086324850236
leaf_weight=158.60496031880757 2083.0919892082456 1945.801612367155 19.098892188543687 2590.4300890393206 1349.3487656194193 278.96962804952636 2448.677647331293 845.36636038697907 117.84654179576319 1152.7025761872937 124.3927129766671 234.45661529537756 538.56401407520752 2643.8333511517412 3754.3032023990381 711.04900564998388 137.72719149122713 49.973783630499383 26.453757169656456 978.61083960012184 2038.6126932285551 695.74479004525347 302.53459161012142 35763.040513225977 209.58165784704033 954.14356396219227 186.90524114744039 2130.1284971204586 417.77876221709448 666.13448678492568
leaf_count=255057 4023 20116 3334 42572 88437 124200 1036033 543705 16543 495618 3780 23982 18855 180191 58197 73514 62473 5397 2480 116105 446015 97470 54238 3600900 154416 206922 39030 214372 64031 84048
internal_value=0 -0.00179508 0.00611818 0.0162325 -0.00515491 -0.00575804 -0.0125625 -0.0113044 0.00403873 -0.00859796 0.0105205 -0.00177292 0.0108085 -0.00286603 0.0216527 -0.00787217 -0.0279928 0.0190235 0.0234905 -0.00525346 -0.0108078 0.00199365 0.00775604 -0.00466887 -0.0185455 -0.00461557 -0.00176139 -0.000668426 -0.00665138 -0.0160634
internal_weight=0 63470.8 18916.8 8290.53 44554 41811.1 5769.08 5610.47 2742.9 4765.11 1776.28 10626.3 849.448 9776.85 5700.1 966.623 255.574 614.992 565.018 7133.01 2753.46 714.844 1651.88 36042 1362.28 3402.82 4379.56 4192.65 2062.52 1083.91
internal_count=8136054 8132031 1416195 120885 6715836 6416851 2691751 2436694 298985 1892989 146455 1295310 50714 1244596 78313 152530 79016 26732 21335 1064405 546819 100804 142675 3725100 650034 1242955 517586 478556 264184 148079
is_linear=0
shrinkage=0.05


Tree=24
num_leaves=31
num_cat=0
split_feature=2 0 0 5 1 13 5 4 5 8 8 8 8 8 8 8 8 8 9 9 9 2 10 8 10 11 4 13 12 9
split_gain=2456.39 629.78 567.937 200.004 98.1296 89.2652 67.7961 65.645 55.6594 51.7214 61.7473 58.5809 56.3712 63.965 108.464 72.1153 113.724 76.4362 92.046 89.4885 76.9993 80.1356 79.6552 74.9313 72.1312 67.793 65.0484 81.8811 65.0271 61.8846
threshold=0.98309081792831432 1.5000000000000002 2.5000000000000004 140.50000000000003 0.33542086184024816 -0.020453774040486632 74.500000000000014 0.025893905798723065 34.500000000000007 0.052259462490697357 0.064855654537149324 0.059271879887644041 0.04990101279712917 0.04182426810477656 0.04886147761764012 0.041407833877966781 0.033973299597941993 0.033338646486914876 44.500000000000007 515.50000000000011 83.500000000000014 0.73914003372192394 8.5000000000000018 0.040430911967720549 11.500000000000002 2.5000000000000004 0.0099470149484159765 -0.0063241793558717002 15.500000000000002 3270.5000000000005
decision_type=2 2 2 2 2 2 2 2 2 2 2 2 2 2 2 2 2 2 2 2 2 2 2 2 2 2 2 2 2 2
left_child=1 4 3 8 5 7 -6 -1 -3 12 11 -11 13 15 29 16 17 19 -19 20 22 -22 -4 -18 28 26 27 -21 -25 -15
right_child=-2 2 9 -5 6 -7 -8 -9 -10 10 -12 -13 -14 14 -16 -17 23 18 -20 25 21 -23 -24 24 -26 -27 -28 -29 -30 -31
leaf_value=-0.038128076395713972 0.054127529150393067 0.027843803875133268 -0.010847831383658918 0.0041966807582952612 0.016764144004929333 -0.0051565548617432278 -0.0030338505469802318 -0.0086989525925209327 0.017411485166784573 -0.013936898403610808 -0.0034805576872347921 -0.054031036420044309 0.016639900528730042 -0.040901796956922816 0.0047719955257178375 0.022975811860755289 -0.052828466219809446 -0.038112057044113939 0.020671357225801795 -0.023634998664155561 -0.067776813483285167 -0.011712158545654241 0.020678315092838191 -0.022593960909168286 -0.098626177588826802 0.018564942577873281 -0.0030626483565927357 0.022281860922079261 0.030219852849619019 0.0099076055857815377
leaf_weight=355.28385480458383 2030.8289639586583 1940.0902261586889 403.4686393091979 2585.07545412748 849.08137781755067 41883.697698812452 881.18030363523576 406.06429801715421 3749.5579714618798 276.15746025014232 828.52047157369088 135.95425897586392 457.19778568399488 350.69566713325912 372.84562627767446 326.80450529290829 162.1897321199649 73.449214172083884 713.51243546899059 117.30819265614264 65.993534568930045 1863.4481876374193 398.01073083942174 150.30431123636663 21.017377473181114 634.07508894859347 2504.4852759475762 563.36437201563967 95.196353955718223 72.280321189959068
leaf_count=381419 4023 20116 135254 42572 39039 6034200 90556 170622 58197 39009 120624 32238 28959 88506 28944 15626 81932 14705 19971 11928 11597 261926 23902 16529 2563 37915 277615 34974 7876 2717
internal_value=0 -0.0017383 0.00591536 0.0157291 -0.00499137 -0.00546498 0.00668151 -0.0224321 0.0209688 -0.00175547 -0.0113476 -0.0271638 -0.000482113 -0.00136282 -0.0148887 -3.27017e-05 -0.00100096 0.000461626 0.0151849 -0.00130729 -0.00821862 -0.0136298 0.0048079 -0.0260323 -0.00972547 0.00363461 0.000662407 0.0143685 -0.00211466 -0.0322192
internal_weight=0 63236.3 18861 8274.72 44375.3 42645 1730.26 761.348 5689.65 10586.3 1240.63 412.112 9345.65 8888.45 795.822 8092.63 7765.82 7337.12 786.962 6550.15 2730.92 1929.44 801.479 428.708 266.518 3819.23 3185.16 680.673 245.501 422.976
internal_count=8136054 8132031 1416195 120885 6715836 6586241 129595 552041 78313 1295310 191871 71247 1103439 1074480 120167 954313 938687 829787 34676 795111 432679 273523 159156 108900 26968 362432 324517 46902 24405 91223
is_linear=0
shrinkage=0.05


Tree=25
num_leaves=31
num_cat=0
split_feature=2 0 0 5 1 9 13 4 12 8 8 8 9 9 10 3 4 12 8 5 11 10 4 10 1 8 8 5 9 9
split_gain=2343.85 639.091 493.9 194.219 90.4933 79.583 59.1356 122.361 91.8014 64.9375 105.426 117.528 105.327 84.3866 76.0286 55.5148 68.1898 53.508 62.4619 53.4611 52.3192 53.7219 51.6076 47.8877 47.7616 47.0585 45.0112 43.8213 42.8403 89.7542
threshold=0.98309081792831432 1.5000000000000002 2.5000000000000004 140.50000000000003 0.96817877888679515 539.50000000000011 -0.013179903474029279 0.011038363149528819 14.500000000000002 0.016374405645007636 0.024171210811712768 0.021253090944236764 7877.0000000000009 8817.5000000000018 15.500000000000002 0.020322437449556096 0.0063600170683418547 14.500000000000002 0.01609827477325905 12.500000000000002 3.5000000000000004 8.5000000000000018 0.013644494286779083 15.500000000000002 0.21188971400260928 0.041507086301418888 0.016374405645007636 217.50000000000003 8660.0000000000018 9969.0000000000018
decision_type=2 2 2 2 2 2 2 2 2 2 2 2 2 2 2 2 2 2 2 2 2 2 2 2 2 2 2 2 2 2
left_child=1 4 3 19 5 -1 7 -7 -9 13 11 12 -11 17 -13 16 -12 18 -8 -3 21 -4 -14 -2 -15 -18 -22 -6 -17 -30
right_child=23 2 20 -5 27 6 9 8 -10 10 15 14 22 24 -16 28 25 -19 -20 -21 26 -23 -24 -25 -26 -27 -28 -29 29 -31
leaf_value=-0.031624589032567069 0.054148897634274232 0.034262993197464127 -0.0044349729768026645 0.0038267932871127691 0.026776061199594681 -0.048250804721166496 -0.010705869545431779 -0.0053079309801133331 -0.032024694668573786 -0.060588113577109907 -0.051782440860649342 -0.041671283017252848 0.010933684196410946 0.0025538773672763269 0.024349981624834011 -0.0033033431062996217 -0.007306932961492184 -0.031205166824849556 0.028176791135656701 0.018662942360690389 -0.066490443175253863 0.0039491077988860609 -0.015807677774151346 -0.049545569288822984 0.01869243945719622 -0.029876264536561982 0.012653997740581091 -0.033896195058435656 -0.026391331112633962 -0.0058661227693421469
leaf_weight=282.41593158442993 1968.9776451389771 615.97699135958101 7086.1286957479751 2586.8713092505932 304.08714342152234 214.16165430503315 511.09410581679549 2333.0839991981047 372.92389495304087 81.015779993205797 104.92956308252178 518.21344525218592 421.06372760899831 1239.2033127145696 47.61278411973035 29060.474139989674 1682.4232743107132 224.71702260599704 129.4459284786135 5065.5429979898472 18.371185374620836 2616.007326624429 315.69089125527535 11.197363473940639 727.63976844627177 267.71338512725197 811.92531952686841 32.989526521239895 600.55067862151191 4708.9012287174992
leaf_count=228374 3645 4596 1064405 42572 8638 161197 192059 747438 247804 75724 76859 287682 35021 217831 13576 3098786 334064 138609 31195 73717 4713 180191 34787 378 32909 130346 46001 2549 122224 498164
internal_value=0 -0.00168405 0.00603693 0.0151834 -0.00496969 -0.0051681 -0.00499658 -0.0118692 -0.00898986 -0.00450276 -0.00504977 -0.0185968 -0.00647511 0.00279985 -0.0361158 -0.00453519 -0.0125179 -0.0102128 -0.00284812 0.0203543 -0.00114345 -0.00217436 -0.000524682 0.0535625 0.00852439 -0.0104052 0.0109028 0.0208381 -0.00405788 -0.00818772
internal_weight=0 62981.2 18800.8 8268.39 44180.4 43843.3 43560.9 2920.17 2706.01 40640.7 37808.6 1383.6 817.77 2832.1 565.826 36425 2055.07 865.257 640.54 5681.52 10532.4 9702.14 736.755 1980.18 1966.84 1950.14 830.297 337.077 34369.9 5309.45
internal_count=8136054 8132031 1416195 120885 6715836 6704649 6476275 1156439 995242 5319836 4707233 446790 145532 612603 301258 4260443 541269 361863 223254 78313 1295310 1244596 69808 4023 250740 464410 50714 11187 3719174 620388
is_linear=0
shrinkage=0.05


Tree=26
num_leaves=31
num_cat=0
split_feature=2 0 0 5 1 0 6 5 10 12 3 5 8 9 9 4 13 13 9 7 4 3 3 5 10 5 8 13 4 9
split_gain=2241.52 561.229 484.823 186.525 92.4969 116.103 108.205 86.3545 79.1504 274.982 62.9851 59.0985 56.9149 54.0423 52.7913 127.972 186.895 98.631 72.6776 93.439 77.3123 63.5929 63.1334 61.2514 57.3815 65.8851 57.377 83.3431 66.3535 51.7658
threshold=0.98309081792831432 1.5000000000000002 2.5000000000000004 159.50000000000003 0.17912180721759799 1.0000000180025095e-35 2.5000000000000004 74.500000000000014 14.000000000000002 17.500000000000004 0.035280184726718719 39.500000000000007 0.016195884246689728 23454.500000000004 1246.5000000000002 0.0085350286701105695 0.0064713321027648181 -0.0047463625633605818 2047.5000000000002 -4.4999999999999991 0.023464543292435715 0.046181529298044456 0.024304710867397803 197.50000000000003 6.5000000000000009 43.500000000000007 0.041431073407275316 0.0067960142077283922 0.016562559474951475 2730.5000000000005
decision_type=2 2 2 2 2 2 2 2 2 2 2 2 2 2 2 2 2 2 2 2 2 2 2 2 2 2 2 2 2 2
left_child=1 4 3 11 5 6 -1 -6 10 -10 13 -3 -11 -8 15 16 17 -7 19 21 29 -16 -17 -24 25 -21 -26 -28 -29 -20
right_child=-2 2 -4 -5 7 14 8 -9 9 12 -12 -13 -14 -15 18 22 -18 -19 20 24 -22 -23 23 -25 26 -27 27 28 -30 -31
leaf_value=-0.057812031606231523 0.053098840454449875 0.025786220030872012 -0.001513702800613925 0.0021818174641746587 0.0124800466101713 -0.054231624521235471 -0.0069680522891264196 -0.0046698298315963702 -0.054055483702203193 -0.037516537227687427 -0.024465828683329364 0.015493874503471334 0.012638500311546359 0.04258505517977678 -0.007198554796648278 -0.015014702415310036 -0.050687658771109249 0.0051839242394522769 -0.011234949299865729 0.0027801614777421663 -0.018742540103000114 0.021798427893139651 -0.005345099672210799 0.0077633755375399989 -0.0023656948657725936 0.025598118778201114 0.027947911126754373 -0.01072396774453128 0.016079961853164054 -0.0026758329533396298
leaf_weight=126.80544206369086 1928.1981378878118 2174.0672262988664 10546.0992238904 2197.8661082870094 1456.9600536697399 83.890917724580504 3876.2875029774441 1479.2546706473513 412.84289009700296 68.169086630601669 540.66986664995784 3890.7277952136064 332.24508673837408 55.813678676378913 3353.2760340002715 1521.6495966099901 397.03048651688732 417.25938105297973 2115.4871595049626 631.50345076236408 967.87423309247242 200.37735557102133 9509.0745893839339 983.30234731142991 2610.4676827520598 633.91746415861417 448.48615918896394 498.15315991517855 430.36045686330181 10709.834526467865
leaf_count=247515 4023 23754 1295310 36138 102642 25473 1451100 261698 430907 56729 342744 60993 86988 10413 245920 433384 151786 30165 220692 39702 152064 13880 1018248 79324 216630 32508 7566 44783 19861 993114
internal_value=0 -0.00163372 0.00559181 0.014661 -0.00473223 -0.00534726 -0.0121687 0.00384 -0.0110737 -0.0254222 -0.00846484 0.0191834 0.00409978 -0.00626468 -0.00430752 -0.00685796 -0.0250629 -0.00476204 -0.00285034 0.000698189 -0.00511597 -0.00556352 -0.00549693 -0.00411663 0.00493433 0.0142109 0.00199041 0.0102486 0.00169949 -0.00408763
internal_weight=0 62669.8 18808.8 8262.66 43861 40924.8 5412.83 2936.21 5286.03 813.257 4472.77 6064.8 400.414 3932.1 35511.9 12912.2 898.181 501.15 22599.7 8806.54 13793.2 3553.65 12014 10492.4 5252.89 1265.42 3987.47 1377 928.514 12825.3
internal_count=8136054 8132031 1416195 120885 6715836 6351496 2626396 364340 2378881 574624 1804257 84747 143717 1461513 3725100 1738380 207424 55638 1986720 620850 1365870 259800 1530956 1097572 361050 72210 288840 72210 64644 1213806
is_linear=0
shrinkage=0.05


Tree=27
num_leaves=31
num_cat=0
split_feature=2 0 0 5 1 13 9 8 8 4 13 8 3 9 4 5 10 10 1 12 5 8 13 8 4 5 5 4 3 2
split_gain=2142.64 489.383 470.591 178.506 81.6622 71.6127 53.9095 55.9624 91.1174 154.797 156.449 120.825 64.9886 52.6304 50.8279 50.101 47.7996 393.471 59.1958 89.2823 79.8561 58.2887 55.0371 47.3675 47.2017 47.1957 46.7667 49.3804 44.3815 43.9698
threshold=0.98309081792831432 1.5000000000000002 2.5000000000000004 140.50000000000003 0.96817877888679515 -0.026942089520168227 786.50000000000011 0.041399477353365133 0.041507086301418888 0.010604353767786194 0.015365416551516202 0.041564465933002608 0.035407360111446483 11.500000000000002 0.0077124980848039372 12.500000000000002 15.500000000000002 14.000000000000002 0.13074292987585071 16.500000000000004 17.500000000000004 0.016195884246689728 0.011705803061228063 0.041407833877966781 0.0088827116494889658 19.500000000000004 76.500000000000014 0.020353570877588677 0.045655175499143601 0.90806865692138683
decision_type=2 2 2 2 2 2 2 2 2 2 2 2 2 2 2 2 2 2 2 2 2 2 2 2 2 2 2 2 2 2
left_child=1 4 3 15 5 -1 24 16 12 10 -10 -11 26 -4 -14 -3 17 18 19 28 -20 -18 -23 -16 -7 -12 -9 -28 -8 -15
right_child=-2 2 13 -5 -6 6 7 8 9 11 25 -13 14 29 23 -17 21 -19 20 -21 -22 22 -24 -25 -26 -27 27 -29 -30 -31
